9980 10
4470 0.04826294 -0.04331516 -0.022077681 -0.018160269 -0.03738543 -0.03654868 -0.012221317 0.025196277 -0.03281773 -0.018152498
2119 0.03217705 0.012323074 0.032018572 0.02630158 0.01604566 0.026881011 -0.008595558 -0.013575837 0.015674934 -0.048076533
6605 0.03343241 -0.024075098 -0.035162624 0.026430098 0.021504851 0.03636898 0.0055051 0.0453551 -0.033191446 0.044713974
341 0.00879482 0.041963592 -0.043745957 0.02876428 0.040754855 0.008686711 -0.043815576 0.001339991 0.024580581 0.022168169
2482 0.03695816 -0.026448555 -0.010150478 -0.03591459 -0.012076352 -0.01162438 -0.007605695 -0.0025019683 0.018642578 0.0015549754
283 0.0007269007 -0.016153358 0.019804789 0.03210818 0.03574323 0.010405705 0.03143523 0.030757837 -0.039387487 0.031687085
7527 0.026668953 0.012563903 0.037819933 0.04290571 0.032841425 0.005835421 0.0002832059 0.023660563 0.00025928474 -0.0113752205
2344 0.009770618 0.014291139 0.01873203 -0.049658682 0.026508493 0.0316341 0.00634173 0.019856565 -0.025499048 -0.016131159
5647 0.028935976 -0.045071434 0.013312191 0.03708742 -0.012931449 0.042977303 0.022061864 -0.0069284365 0.04326403 -0.032358672
8163 0.003411597 0.021233816 -0.030339327 0.04669101 -0.021269677 0.045389086 0.020298298 0.0057289386 -0.029142834 0.02712483
5424 0.028996574 0.048303224 0.031730074 0.017881267 -0.046051778 0.03828369 -0.00136806 0.029854584 -0.044371754 0.03429972
9979 0.023139466 -0.049698748 -0.030638203 -0.04728131 0.02988055 0.03848785 -0.02653553 0.019284492 0.010175877 0.008745515
5884 -0.043042745 0.0054324 -0.028109334 -0.013342524 0.023714012 0.009079099 0.027164737 -0.013069651 0.0179295 -0.024681676
850 -0.04231462 -0.026673889 -0.0057583037 -0.016132222 0.033673264 0.03947737 0.006050267 0.04181882 0.0191059 -0.045879424
9135 0.030764889 0.048225947 0.03216256 -0.010120274 0.033232737 0.03275811 0.02677687 -0.04372341 0.013449969 0.02066601
4520 -0.018131435 0.0037061397 -0.022011638 0.012896402 -0.00022952497 -0.036559436 0.04519911 0.014585353 0.03656209 0.0019008965
4535 -0.007957178 0.047774352 -0.02155461 0.03982035 -0.015191802 0.046212044 -0.04082214 0.015560423 -0.026098821 0.0031162794
9840 -0.035579044 0.029647114 0.013089523 -0.008271005 -0.03337453 -0.0020485886 -0.016358642 0.0010198617 -0.037479244 -0.021685913
7826 -0.035766944 -0.0104695745 -0.0053047757 0.031679243 0.04285564 -0.038545202 0.027769279 -0.043156415 -0.0025345767 0.032846257
1129 0.048226222 0.032959506 -0.039792676 -0.0001780472 0.014781775 -0.04855559 0.036719773 0.02778204 -0.044523664 0.031946376
4727 0.037526593 0.012357494 -0.019519385 -0.01633101 0.013135355 0.0022232444 0.027372682 0.025070913 0.0016751142 0.01574158
1896 0.010733454 0.045997445 0.03437793 -0.038911317 0.038913645 -0.041350048 0.007249525 0.047213417 0.01415867 -0.031439573
7570 -0.042568434 0.0037090979 0.01869152 -0.0019797871 0.018852841 0.019198393 0.049202442 -0.047483783 0.032795865 0.0360083
1570 -0.022878362 0.011452434 -0.033517677 0.012575028 0.0334158 -0.04857839 0.036232386 0.0081333 -0.0042082733 0.031760223
6391 0.001468582 0.0077057485 -0.048792165 0.0038625405 -0.033986613 -0.011827354 -0.04597305 0.0052737333 0.045054182 -0.03868027
9955 0.044237196 0.045040373 0.027428668 0.027804013 0.00040558513 0.039260402 -0.042022724 0.03251591 0.023673262 -0.005656689
6157 0.04966204 0.009221845 -0.005613799 -0.014926745 -0.03618074 -0.0060681025 0.008839986 -0.03628086 0.025960315 0.043918703
9078 -0.034035586 -0.022657305 -0.0045347977 0.0020248587 -0.021564024 -0.03508753 0.0028954141 0.040403705 -0.023692202 -0.042875946
5589 -0.007750288 -0.015313728 0.007265223 0.04223069 -0.025212124 0.03215566 0.03676066 0.027208464 -0.018649453 -0.014542659
5204 0.047433965 -0.013437412 -0.031827644 0.041884042 -0.041305456 -0.015213064 0.0061469553 -0.03673658 -0.012524999 0.015466298
6177 0.013931128 0.018527692 0.025497753 -0.037375964 0.005150569 -0.015420278 0.035993833 0.026460884 -0.029691951 -0.01038449
208 0.00030417068 -0.024900276 -0.011043783 0.030808924 -0.034925558 0.0011059263 0.016432364 -0.01690497 0.023568425 -0.02576929
5600 -0.010402129 -0.027244011 0.03459744 -0.023655444 0.014971387 0.026129909 -0.0041957805 0.019439548 -0.016384577 0.021134524
6634 -0.002939951 0.036343925 0.038626835 0.018907342 0.009878974 -0.023876278 0.008584113 0.009437133 0.018187333 -0.017840682
4117 -0.037602797 -0.005522522 -0.045664612 -0.0024296006 -0.011567934 0.0013410652 0.03917854 0.0011010882 -0.0030127647 -0.027537549
7752 0.040132884 -0.037149288 0.04390364 0.017734524 0.021385716 0.032024294 0.04066889 -0.005029548 -0.018751675 0.028834326
463 0.024496837 0.008876182 0.012513845 0.02532826 -0.023883132 0.010878549 -0.022743149 -0.03303661 -0.010853492 -0.04553481
5270 -0.019048331 -0.019967811 -0.027117806 0.028220726 0.041887354 0.027779834 -0.047981985 -0.0023857178 -0.020972813 0.04226019
7218 -0.010568797 -0.010412698 0.022705251 -0.029761191 -0.03634292 0.008885712 0.008343566 -0.01429498 0.040992144 -0.018870635
9004 -0.0058366265 -0.03475023 -0.0041568293 0.033846814 -0.030830327 -0.036939055 0.024693482 -0.016680043 0.010472808 0.001318773
1820 0.049931217 -0.04723281 0.016738346 0.04953051 0.035475373 0.020119498 -0.027555669 0.0050274804 0.035637815 0.033159707
998 -0.026518784 -0.03384867 0.027720446 -0.013181492 -0.013925988 -0.027279085 0.04306664 -0.0128494045 0.022036228 0.02562618
5086 0.044858158 0.004372969 -0.019365989 -0.048836872 -0.04198791 -0.04095245 0.0051040626 0.00706213 -0.044292238 -0.015450143
7760 -0.014852599 -0.021811862 -0.008547576 0.04879314 -0.043608144 -0.0111146495 0.008446763 0.02530646 -0.03363511 0.010020727
269 0.042626336 0.018360835 0.010369646 0.0346428 0.04709626 0.04029508 0.003132059 -0.017635323 -0.014956851 -0.016300663
7512 0.04108632 -0.0021864776 -0.049537733 -0.026521498 0.014510964 -0.010524166 0.025011009 -0.00601785 -0.013910219 -0.04407093
5899 0.03278261 -0.025193715 0.04055995 0.042734742 0.048174895 -0.0019210636 0.015880473 -0.02704162 0.0029704894 -0.04436947
8147 -0.027989883 0.023129568 0.04511864 -0.010427549 0.03951734 -0.0422446 0.016973717 -0.012665735 -0.0045790593 0.042070515
9239 -0.043144584 -0.04641404 0.00877464 0.03843755 0.023821102 0.00939117 -0.031045772 -0.038272344 0.005884941 0.009545307
599 0.037739452 -0.033698317 -0.010771152 -0.04433732 -0.0076721506 0.026336025 0.02458893 -0.018322239 -0.01553302 0.015525629
3433 0.036608938 -0.001888482 0.027220394 0.0030642773 -0.016063882 -0.01888115 0.042773407 0.021967512 0.014026201 -0.036030483
2348 -0.043113984 -0.017331114 -0.03981139 0.015829688 -0.02126531 0.010855149 -0.023425957 -0.024082739 -0.030550784 0.024469523
4558 -0.047201794 0.008221403 0.018660152 -0.030427413 -0.033246234 0.006147634 -0.023694048 0.0019480978 -0.0322824 -0.0419583
1818 -0.034949977 0.037106838 -0.025303084 -0.034124125 0.033939045 0.028732046 0.02812828 -0.032399748 -0.0043718987 0.011943469
9263 -0.037651356 -0.011999019 0.01323695 -0.04055648 -0.04528584 -0.033318635 -0.03424467 -0.04538601 0.016248247 0.029026391
4978 0.010526107 0.0390755 -0.00421019 0.021160217 0.041578885 0.024671644 -0.020191902 -0.009888019 -0.007974877 0.035988823
8265 -0.007632069 0.009056595 0.011126039 -0.033772394 -0.018800214 0.013887652 -0.0062434706 -0.008088943 0.048469365 0.035625286
6828 -0.00847387 -0.030287527 0.032194156 0.04084448 -0.007496802 -0.014618785 0.03962527 -0.017214233 -0.030459438 -0.042309664
8520 -0.038601927 0.03838759 0.037709188 -0.000992385 0.024054045 -0.041987456 -0.016157186 -0.03978953 -0.027758094 -0.034225572
2311 0.045467287 0.009504281 0.029835604 -0.0058298167 -0.04029877 0.03627165 -0.04974825 -0.010906225 -0.023031956 0.038132705
6242 0.04704461 0.030977502 -0.008319465 0.009330592 -0.0039102393 -0.048158035 0.019227235 -0.022220144 0.027559305 -0.0041671637
474 0.037021723 0.04283187 0.047230266 0.049149953 0.025043886 0.006547691 -0.033429578 0.0032630528 -0.008119929 -0.0409539
6971 -0.03012907 -0.025967456 -0.044090472 -0.0051565235 -0.049836844 0.01885262 0.000658496 -0.010267505 0.04792369 -0.011344702
79 0.021429062 0.01576494 0.0071232463 0.0057252864 -0.007403727 0.030657744 -0.029625032 -0.03918535 0.04271769 -0.04244448
2694 -0.044355575 0.023110066 0.019350402 -0.021890422 0.041926686 0.026840776 -0.04810582 -0.039063137 -0.03476895 0.031435132
5312 0.01053363 0.046831183 0.0046335063 -0.031484287 -0.020956945 -0.04662875 -0.005063577 0.025209038 0.029670892 0.039068542
3332 0.011981812 0.035252757 0.009449938 -0.03172338 0.00081186544 0.04097339 0.029951237 0.03990209 -0.04501529 0.021050291
9866 0.02262176 0.04271356 -0.017944679 0.03387674 -0.018573485 0.005832689 0.0030425133 -0.048350673 0.011544963 0.044918478
379 -0.043099135 -0.048973035 0.03437812 -0.043431085 -0.04588238 0.045394257 0.023068754 0.022103904 0.016806778 -0.036200035
9790 -0.012154314 0.0061446456 -0.035874136 0.046053786 0.039349925 0.039253727 -0.035566732 -0.022208186 -0.0092233885 -0.03817483
4502 0.0071857134 0.026049465 -0.0013704378 -0.04723431 0.037589323 -0.043358404 0.0006316586 -0.044672266 0.024280388 -0.04232018
5723 0.021753108 0.03769198 0.013671119 -0.0009147997 -0.020578666 -0.037169997 -0.048106298 0.0152738765 -0.04206179 0.04806733
6690 -0.0044403756 -0.01253198 0.018569492 0.027789092 -0.040999733 0.002566408 0.02497366 0.042094283 0.020396447 -0.013652839
7061 -0.00870491 0.01870291 0.02268507 0.022342665 0.031999987 0.002702018 0.013516897 -0.025250658 0.008527279 -0.009753795
1284 0.007860607 0.049373493 -0.04102688 0.029184226 -0.036565304 -0.039132997 -0.0024817 0.021121526 0.047221847 -0.0073120985
8791 0.015007916 0.011511802 -0.03169663 -0.03998924 0.0059754546 0.013412188 -0.009750052 -0.01569257 0.04746735 -0.027686018
4180 0.028999029 0.014375362 0.03803494 -0.009297453 -0.027721176 -0.011827184 -0.0410145 -0.03521651 -0.005122895 0.0118674375
7906 -0.017323945 -0.04240207 -0.0041424576 -0.039890796 -0.017203445 -0.008734476 -6.8985246e-05 -0.037933644 0.021953916 0.04779297
652 -0.0059713665 0.031011669 -0.005614452 0.026992798 -0.013279069 0.029726561 0.02174402 -0.04032088 0.04890033 -0.0044018803
701 -0.03362244 -0.04031105 -0.0056907386 0.045326434 0.009576252 0.0069521028 0.030065283 -0.024638413 -0.01158616 0.017644705
6586 -0.011052053 -0.042660218 -0.0031283216 -0.014497681 -0.044378996 0.0010781 -0.026717616 -0.038973093 0.042723887 -0.037715845
3400 0.029117102 -0.023609735 0.035313837 0.04745411 -0.008224013 0.008622436 0.018986478 -0.028227206 -0.04567134 -0.0033511652
6249 -0.007633503 0.04096055 -0.042500295 -0.013104737 0.0154559 0.038685452 0.0032473675 0.03764268 0.02663975 0.0049448176
1695 0.04821174 -0.018539311 -0.03981932 -0.0009630176 -0.031354498 0.034877747 0.02986152 0.016852718 -0.011496295 0.028833343
3936 0.047203552 0.033556867 0.016715646 -0.04228748 0.014481404 -0.013395091 -0.026809433 -0.030010952 -0.01355263 0.02406038
159 0.049461834 0.005230894 -0.042589776 -0.029354256 -0.031527642 -0.037070397 0.04125778 0.012596825 0.027419973 0.025413977
5209 -0.04538352 -0.002986379 -0.014633519 0.042151056 0.03081186 0.016023861 -0.031902667 0.038418565 0.018273152 -0.04574606
5763 0.019067682 -0.040906534 -0.019259833 0.04250894 0.0030425682 -0.013380018 -0.020469481 0.027402185 -0.022600971 0.0047882837
1731 0.04751707 0.028418247 0.021679778 0.0144913765 -0.015132711 -0.034194168 0.04444079 -0.044512227 0.005515683 0.008261805
5370 0.00623658 -0.024890771 -0.044255294 -0.006547741 0.0008540363 -0.02055796 0.010574754 -0.0005113142 0.04683908 0.02023619
8687 0.027286135 -0.025272908 -0.042561967 0.034405246 -0.020038657 -0.02551943 -0.0009484724 -0.013816796 0.046764832 -0.010787227
6159 0.016777473 -0.041109703 -0.018709967 -0.0013036807 0.027104313 0.03334417 0.039974295 0.024239562 0.007064175 0.0020703964
7025 -0.010094603 0.02786842 0.021770945 0.04925555 0.046606462 0.039622128 -0.0009677224 -0.008732532 0.04785207 -0.0089574
2857 0.008594837 -0.0065256096 0.04771447 -0.032399386 0.039755013 0.016927972 0.0043283054 0.03378041 -0.041248683 0.032440856
8092 -0.010642055 -0.027661735 0.02890168 -0.041268773 0.03288328 0.02033683 -0.021550253 0.01687054 -0.037287764 0.041593745
3118 -0.022857541 0.021563046 -0.0047112834 -0.0062318286 0.045034375 0.025758514 -0.0265231 -0.026408603 -0.02259198 0.013420167
7932 -0.016139815 0.01186772 0.049710937 -0.042558394 -0.034357015 -0.022833612 -0.019461075 0.00819567 0.020531863 0.041791048
4941 0.022211988 -0.039509065 -0.010343873 -0.01389218 0.008628214 0.047474954 0.0449972 -0.01778874 -0.038678095 0.011860321
1164 -0.03410291 -0.024867907 -0.0090593295 -0.01369563 0.014781522 -0.02659881 0.046418976 0.009148877 0.00096807454 0.038637314
4322 0.0070932284 0.020066936 6.04925e-05 0.0049929675 0.01137722 -0.022457985 -0.045935515 -0.0116806 -0.029689834 -0.0052637383
3547 0.018213628 -0.03497967 -0.026123922 0.0087726675 -0.0026630706 0.042609803 0.040726453 0.03302779 -0.020644356 -0.016876414
2775 0.009641907 0.0373635 -0.006917651 0.031301383 0.02509228 0.025352387 -0.043978993 -0.046024077 0.025178693 0.045525502
1620 0.006913815 0.016858453 0.0057732332 0.019489726 -0.006514264 -0.024061007 0.0144591145 -0.020130781 -0.0159305 0.034669083
6071 0.017279485 0.013694515 0.037499037 -0.013191865 0.012062054 0.0010399062 0.013930288 -0.0155470595 0.018410502 -0.03123551
4290 0.0395462 -0.008797609 -0.007979339 0.008761961 -0.03413115 -0.013444471 0.016572405 -0.039313983 0.034555867 -0.015367578
2287 0.017739348 0.022415638 -0.038493916 0.014625117 0.0123135885 -0.045116674 -0.048674252 0.04725868 -0.040841196 -0.038994357
8750 0.02145282 -0.024511432 0.023081165 -0.04008253 0.0025135989 -0.0011171438 0.03393039 0.0048531448 0.04200766 -0.012495052
77 0.018496271 0.046215527 -0.029319454 0.02927521 0.04374744 -0.029410884 -0.03140186 -0.0037139314 0.00501703 -0.0038398346
3831 0.02971383 -0.02603852 0.009314267 0.008803471 -0.013303532 -0.04705475 -0.01589047 -0.03778306 0.0034865246 0.031212743
5360 -0.03137603 0.020546762 -0.041288666 -0.04072225 -0.04875249 -0.004894188 0.013118898 -0.022735706 0.01891376 -0.03458649
4628 -0.04217941 0.0069911545 0.0031506575 -0.00087211485 0.03403868 0.04134009 0.033228822 0.037736956 -0.020937335 0.0115567455
8719 0.0074535063 -0.0021272022 0.04159643 0.0032458862 -0.0036702512 -0.048164904 -0.041988473 0.019448563 -0.011939145 -0.030366851
2243 -0.0352964 0.009056171 0.04099057 0.018271286 0.04476551 0.02999178 0.0074644033 0.04086541 0.009840968 0.04184686
3054 0.00038017696 0.01879763 -0.0211882 0.015510247 0.029290222 -0.028634008 0.0015094376 -0.020811792 0.018953433 0.018284334
5797 -0.025607435 0.031203942 0.024729146 0.016210642 -0.015383181 -0.012439357 -0.028315037 0.03343495 -0.019701887 0.007565122
6103 -0.010957395 0.00015587185 -0.03101995 -0.00066591566 0.02936257 0.0036627776 0.014409939 -4.8766735e-05 -0.005871601 -0.03170406
5947 0.0390415 0.031658385 0.04296933 0.009998288 0.032962013 -0.040086243 -0.04059812 0.04440805 -0.023388904 -0.012115765
7503 -0.018183133 0.028951602 -0.035170488 -0.04596172 -0.01641869 -0.014816204 -0.0063750544 -0.0312683 0.030331368 -0.026290834
7456 0.037398662 0.040691063 -0.040764004 -0.04470206 0.015937114 0.04159478 0.0072124028 -0.004956175 0.030104004 -0.015731692
1318 -0.04338765 0.036581222 0.032939836 0.028816955 0.012973047 0.036477324 0.019775266 -0.028154396 -0.032053076 -0.025295405
3170 -0.042528857 -0.01917333 0.011461476 0.04191831 -0.04727053 -0.011018298 0.005934057 0.004801666 -0.03197165 -0.022524793
2614 -0.01629408 -0.042821717 -0.0029414864 0.042094994 0.0014445012 0.009532921 -0.0091399895 0.023077276 0.039845645 -0.023826318
5704 -0.033251937 0.04196178 0.014835662 -0.034201197 -0.010603021 -0.040101692 0.028467104 0.040614393 -0.03703183 0.010300867
7574 -0.0063517108 -0.045612432 0.006361656 0.025221096 0.03238777 0.02427802 -0.018984266 -0.042606626 -0.049921997 0.028726416
7239 -0.024674742 0.0066601634 -0.026597967 0.013373306 -0.025995271 -0.0028997143 0.0101806605 0.013838981 0.01597433 -0.048300125
7683 -0.008969806 0.01647088 -0.01611635 0.0015766134 0.0024068258 -0.019161854 -0.023735873 0.04068301 -0.027177684 0.030746412
5573 0.027203213 0.04660772 -0.0026000678 -0.02020701 -0.025210345 0.025917003 0.028485771 0.039716378 0.043997888 0.022044003
718 -0.03293351 0.036969986 0.0039895074 -0.026956543 -0.018168075 -0.036047544 0.040503938 0.034741797 0.0464834 -0.029334981
3111 -0.007709275 0.006797169 -0.032348473 -0.045146108 -0.021345455 -0.04646471 -0.0047061243 -0.00914749 0.020249778 -0.02234561
9310 -0.04158175 -0.04653637 0.016974952 -0.009988927 0.0011129767 0.0004669169 -0.01558966 -0.012712382 -0.039224703 -0.0010934453
9041 -0.016934995 -0.011010287 -0.028794002 0.031288095 0.047029305 0.048889205 -0.034603998 -0.014082002 1.7502249e-05 -0.0017325631
8177 0.0028622625 -0.015485422 0.017828442 -0.015284012 -0.030800829 0.019363996 -0.048294693 0.014493746 0.020996831 0.010933143
690 -0.042696644 -0.0018032569 -0.028154673 -0.01905752 -0.0016232205 0.047878005 0.048228584 0.039891943 -0.0118793985 0.022010753
505 0.0039518955 0.044512186 -0.041529298 0.027282748 -0.0026729552 -0.0009296987 -0.033388507 0.020363273 -0.0032490776 0.018108714
9699 -0.0052789054 -0.031602144 0.028860733 -0.033027776 0.0347183 -0.01687494 -0.04512224 0.005783074 0.013536583 0.0429978
7774 -0.020346427 0.019598635 -0.019185375 0.0005005255 -0.018411942 0.0147105 -0.01665985 0.017452525 0.0012893649 0.00072333915
2322 -0.022897406 -0.023652842 0.010355377 -0.041522082 -0.032816358 0.017906394 -0.017107762 -0.036583673 -0.047394954 -0.005802349
4889 0.037042253 -0.007623108 0.038414247 0.020491349 0.011985201 0.04154415 -0.026067238 -0.029609935 -0.030797284 0.0495828
7861 -0.044071224 0.002413499 0.01651802 -0.0063018776 -0.027906148 -0.039459866 -0.016978411 -0.010146173 -0.009296086 -0.001873442
6254 -0.046719436 0.021217728 -0.044770405 -0.031685546 0.045731593 -0.0013475558 0.012730469 0.044788923 0.026120128 0.025072677
7521 0.017092064 0.0020879705 -0.043676466 0.010508645 -0.04188414 0.017645966 -0.04716643 0.02166296 -0.043820173 0.008603332
2631 0.02975493 -0.043537933 0.04827841 0.04628466 -0.03665774 0.018114997 -0.0047418657 -0.011618723 0.004108137 -0.022288777
8619 -0.040852964 0.047977023 -0.013533364 0.032231834 0.04542165 0.017396154 -0.019313604 0.03326056 -0.049767148 0.011660843
8550 0.04196856 0.028858816 0.035924 0.03306768 -0.035870224 0.042041853 -0.0038490626 0.0051983423 0.007580954 -0.012588136
1192 0.013597326 0.024457324 -0.023766238 0.04004192 0.046629045 -0.032659933 -0.02195821 0.03112694 0.021098893 0.0394501
751 -0.009302877 0.021720804 0.033947986 0.04528195 -0.009747287 0.03270727 0.025933774 0.03980709 0.012569593 0.03295086
1405 0.0005560075 0.022310581 -0.009145162 0.020867147 -0.029688355 -0.02412611 -0.0034660143 -0.011179467 0.013202993 -0.009714608
9958 -0.04609086 -0.048767388 -0.043241903 0.0290053 0.013527942 0.023473267 -0.029310782 0.025279071 -0.017517341 -0.045852832
4173 0.010691876 -0.0111792935 0.02808747 0.027361713 -0.008024763 0.039332412 0.02101329 -0.04438924 0.018251302 -0.012794877
8082 0.019270891 -0.016782539 -0.03827224 -0.029797453 0.0022285478 0.039568897 -0.023843732 0.024196602 -0.0020023605 -0.0036378999
2697 -0.043825746 0.035306957 -0.041741773 -0.012334289 0.026543152 -0.029912112 0.049073048 0.028880985 -0.010889864 0.02465709
4389 0.018379182 0.024339689 0.034907866 0.033172853 0.014519166 -0.027595079 0.0060964795 0.012069539 0.0005634786 -0.027991302
2051 -0.040292352 0.0030629726 0.041291807 0.033458017 0.0014306444 -0.03638723 0.0017706817 0.044959236 -0.03009097 -0.03910321
8601 -0.013197202 0.000665105 0.01746462 0.038904037 0.019740999 -0.008286914 0.029957399 -0.011239186 -0.0021344463 -0.048377965
9744 -0.0031942816 -0.021521054 0.013967136 0.03570798 -0.0014731392 0.00938021 -0.021589417 -0.026174042 0.030759852 0.006426288
5439 0.00947907 -0.033125933 0.0042139273 0.0032689744 0.040399503 0.03435019 0.013400661 -0.006217317 -0.023087017 -0.036504827
1610 0.03305235 0.037400566 -0.043068834 0.03389591 -0.019125715 0.01485262 -0.02634263 -0.017656915 0.026013043 0.049719356
6314 -0.026526019 0.022524187 -0.031484548 0.0056443256 -0.00010667761 0.018628452 0.0060795574 0.014374789 -0.014035709 -0.022765324
167 -0.007286777 0.040457197 -0.0014942446 -0.0075999517 -0.0025009257 0.02265738 -0.03974931 -0.0321258 -0.04268717 0.03682698
325 -0.0039946106 -0.019742941 -0.022200536 0.014313014 -0.013521504 -0.027372597 -0.011918146 -0.0348077 0.011573247 0.011281716
1048 0.027813265 -0.005007274 0.01235928 -0.009397828 -0.01987641 -0.0017689094 -0.03723879 -0.037416235 0.024637334 -0.011399091
4652 0.024189888 -0.020031959 0.004638219 -0.00043216732 -0.040862937 0.0486462 -0.044069674 -0.012872716 0.019115115 -0.016282503
4394 -0.018050967 -0.029235361 -0.048787195 -0.012689294 0.015650759 0.045151357 -0.013030551 0.04712409 0.012483239 0.014307664
1557 -0.0073865205 0.024051478 -0.027101822 0.020333217 0.026850723 0.013003091 0.047719028 -0.04198215 0.007896484 0.016133651
9005 -0.04497078 -0.007154395 -0.016900852 -0.02422456 0.011387389 -0.04659821 -0.048982803 -0.022512479 0.022567855 -0.0003168231
2042 0.046275746 -0.023537353 -0.023952013 0.018441042 -0.010338111 -0.034823477 -0.024664896 -0.01370212 -0.03872809 0.009993822
561 -0.04491094 -0.0007440849 -0.01581298 0.019774606 0.008640272 -0.03359638 -0.013510923 -0.011116748 -0.0032892856 -0.0053630946
6760 -0.014072216 0.009594641 0.043218672 -0.040866718 -0.022821391 -0.02950806 0.04087635 -0.028213011 0.029919626 0.012629154
6364 0.0016604743 -0.03479567 0.0070506153 -0.045867495 0.036391664 0.004413555 0.00288353 -4.8169462e-05 0.043340378 -0.007787557
4927 0.0467804 0.041017003 0.026595054 -0.026010606 0.037075214 0.013883488 0.007983622 -0.04817898 0.034124404 0.009834886
8310 0.036389217 -0.016600976 0.00015644394 0.016513446 0.02643458 -0.035918705 0.0030023705 0.036427643 0.03859606 -0.036106475
6555 -0.016597567 0.028619932 0.027029758 0.010395051 -0.014452155 0.013046528 0.002295446 0.039651755 0.01910067 -0.022279067
8669 -0.021463655 -0.0063702096 0.00084571 -0.025897298 -0.03685828 -0.008148358 0.04213634 0.021943232 0.026905736 0.023654995
3263 -0.03616328 -0.021611728 0.046358284 0.003582041 -0.024312295 -0.0004711909 0.033347074 0.0063589327 0.0065201377 0.042660434
9002 -0.010033551 -0.025943194 0.042162705 0.008034581 0.02298454 -0.026724607 -0.008993037 0.024300909 0.027561583 0.010805609
3078 -0.0039554094 -0.0039219935 -0.04505699 0.049538027 0.04797356 -0.04015998 -0.010134376 0.031478077 0.04787385 -0.034687463
9928 -0.014500809 -0.020732772 -0.010387233 0.0060938844 0.0079420395 0.010546651 0.037361037 -0.039589524 -0.043377396 -0.0012848767
9524 -0.044709977 0.039654814 -0.048715066 0.011520893 0.019826638 0.022733647 0.039284583 0.045380782 -0.031754505 0.015037847
9254 0.014320188 0.037265576 0.0072825104 0.00049933203 0.0054428694 0.025995115 -0.03585147 -0.029234964 0.030130252 0.0031959047
7468 -0.0362144 -0.024083504 0.012361039 0.01274416 0.024075441 0.0063813864 -0.025765939 0.0057709054 0.011170913 0.022648184
8173 0.016932791 -0.039647084 -0.03882656 0.011381614 0.028591035 -0.040378205 0.048849728 -0.040988028 0.04126934 -0.045043282
899 -0.04624015 0.013641788 -0.0018402332 0.026851313 0.023739617 0.0073553766 0.03334394 0.015901837 -0.043931786 0.014001093
6363 0.038601685 -0.035220396 -0.029388048 -0.0090014255 -0.039199755 -0.017982198 -0.024291845 -0.027257388 0.0136716515 0.008389118
9356 0.01285256 -0.024235927 0.020464921 -0.0460471 -0.047389463 -0.029040486 -0.012381961 0.03267279 -0.034572933 0.013133342
7286 -0.04504645 -0.048233602 -0.013426713 -0.045397915 -0.017566819 0.034261413 -0.018225143 0.01475338 0.034849804 0.020831145
1182 0.010613014 -0.008799581 -0.023030266 -0.045203175 0.036846165 0.008780877 -0.040657837 0.029928096 0.016341053 0.0056554805
7014 -0.048577316 -0.013353372 -0.038778868 0.01712371 -0.020807154 0.020819817 -0.018705882 0.00040332656 0.039388917 -0.014829042
4845 -0.03257056 0.028205896 0.041030686 -0.021473402 -0.03972594 0.040313777 0.014391496 0.04949281 0.033328958 0.040179875
4540 0.0137292035 -0.03434838 -0.004154595 0.0013401016 -0.0025653895 -0.031896576 0.042687666 0.007103821 -0.0155313695 -0.023297707
5407 -0.03549411 0.014187883 -0.044915132 -0.009052791 -0.041188356 0.010047668 -0.034446374 -0.016238075 -0.04207401 -0.047593966
5531 0.0044773757 0.041942507 0.028628962 -0.02653287 -0.017767508 0.04266568 -0.01914634 -0.040103875 0.025310853 0.024166942
6001 -0.041354343 -0.026494574 0.039372593 -0.047395874 -0.045612983 0.0465035 0.01303009 0.027727403 -0.00839434 -0.027197415
5333 0.0017131764 0.02353251 0.019337257 0.014641824 0.03157275 0.02152022 0.019345056 -0.022488995 -0.040654384 0.031407468
3403 -0.015326755 -0.018839713 -0.0221531 0.007870099 0.033542342 0.04888729 -0.018185057 0.005182359 0.03457918 -0.021635756
4207 0.049746305 -0.012499179 -0.025908845 0.035250127 0.03404381 0.0011421312 0.00921523 0.02875993 -0.0047113015 -0.028059773
8859 -0.019131253 -0.014588101 -0.040731948 -0.0072047687 0.040771525 0.0485327 -0.0047898204 0.030524382 0.049469233 -0.017857779
5999 -0.006863313 -0.034791987 -0.036776885 -0.048801824 -0.03824349 -0.0013365893 0.030737568 0.027583536 -0.024693524 0.025399152
4744 -0.026912495 -0.0469774 0.010447549 0.02822309 -0.01669834 0.0028461174 -0.04679772 0.017651295 0.013510877 0.035553943
1677 0.045882706 -0.049795028 -0.014022855 0.0039265663 0.02196614 -0.011756653 -0.0063293795 0.024203029 0.020505847 -0.0057107424
619 -0.032787662 0.007394349 -0.04273522 -0.008574417 -0.010438156 -0.0015552697 0.030403849 -0.046736352 0.04355416 -0.01490276
1473 0.04027452 -0.0052260305 -0.032942925 0.024366613 0.01220367 0.0046507507 -0.002073875 -0.009438773 -0.02762505 -0.0154957045
9092 -0.0025711912 0.026678964 0.04049306 0.022922091 -0.0006806351 -0.040448844 0.045182213 0.04144332 0.008827903 -0.01970393
9660 0.046454947 0.01880931 -0.04196613 0.02064971 -0.023559108 0.04704861 -0.019798568 -0.024931494 0.04407764 -0.028610395
5914 -0.006073946 -0.004682542 0.015154803 -0.04614151 -0.013479767 -0.016056146 0.03476713 -0.0046156314 0.02516197 -0.03623599
7312 -0.04501042 -0.044595096 -0.026709503 0.025785651 -0.026063878 -0.04819977 0.046264533 0.03122513 -0.038324878 -0.037433527
5675 -0.013644104 0.004877505 -0.028786523 0.02294345 -0.014408617 0.020385752 -0.031055257 0.0005436199 -0.010959265 0.048153244
2754 0.033549234 -0.014644769 0.016230913 0.02962574 0.012687386 -0.046453595 0.017762423 0.01609072 -0.034623675 -0.040283423
7505 -0.008717964 0.029714445 -0.022161288 0.039112862 -0.011202009 0.040984027 0.035133388 -0.03866745 0.008364739 -0.0006821205
9266 0.00069394056 0.00114446 -0.0031460247 0.0043576583 0.032849304 -0.035769876 -0.042446572 0.04596586 0.014304623 0.023259694
5392 -0.018859012 -0.013788837 0.0032236795 0.035732046 0.046376366 -0.023042798 -0.023660505 -0.026843071 -0.023151614 -0.027671168
358 -0.014453677 0.017718274 -0.033083305 -0.04478634 -0.030335752 -0.0008929364 -0.028087517 0.0061026863 0.029017959 0.042104673
7887 -0.024121303 0.028801272 0.04093613 0.041370317 0.030707208 -0.026236866 0.048675623 0.024730701 0.004650074 -0.00578896
5691 -0.0113197025 0.014468967 -0.0025982358 -0.014164268 -0.041730158 0.030960815 0.039021958 -0.005083596 0.048822604 -0.046066478
1100 -0.025309011 -0.03406748 -0.03267491 -0.036964376 0.04299599 -0.04036968 -0.012533545 0.033453997 -0.017252209 0.04124272
5490 0.029473329 0.0060467385 0.041161243 -0.030456096 -0.024786029 -0.03164573 -0.027427187 0.003143011 0.038281746 -0.009194779
5757 0.017068135 -0.04262551 -0.048086114 0.0215162 0.016952181 0.041425202 0.0059365043 -0.006327469 -0.015597248 -0.041493144
8467 -0.02827685 0.036354907 0.048038505 0.018490171 -0.03652052 -0.040757496 0.034421865 0.03332423 0.041677315 -0.03638716
6777 0.016751627 -0.032519635 0.044567242 0.049498376 -0.02242177 -0.0074355444 0.03755623 0.039414052 -0.028898321 -0.0078359535
9396 -0.016752519 -0.046010014 -0.048105694 -0.0037294042 -0.03221209 0.027824897 0.039503522 0.03790406 0.0058317543 -0.013552191
3210 -0.005813022 0.019352607 -0.0002595181 -0.03479163 -0.047538295 0.025520064 0.028568596 -0.028684765 -0.010754454 0.02505167
2762 0.017798206 0.024742879 0.04293901 0.00093218527 -0.021237956 0.024908615 0.006050518 0.045357123 -0.0060802926 -0.024566418
4972 0.033905715 0.04185719 0.03805919 0.021103907 -0.002971983 0.003616449 -0.046673834 0.031201843 -0.008413034 0.004884133
8784 0.028629238 -0.030184532 -0.016987639 0.01273365 -0.015628139 -0.021322662 0.036423694 0.033318367 0.033534586 -0.044290677
8292 0.009173915 -0.041652836 -0.042561512 0.016746506 0.030759355 0.007946535 -0.039820716 0.0019067823 -0.01643186 0.032726817
528 -0.01142876 0.047042195 0.035063434 0.017231882 0.04122939 0.03548891 -0.02415104 0.009382366 0.04289916 -0.025865357
4758 -0.0028018754 0.041357525 -0.03467848 0.040092852 0.049407337 -0.0063592643 -0.021723857 0.034628414 0.04434868 -0.016263524
6864 -0.0017192743 -0.021130502 0.0075790165 0.031908363 0.04894968 -0.01058102 -0.044770848 0.0075657987 0.037755292 -0.016415762
4572 -0.04924003 -0.04571178 -0.018984964 -0.026129467 -0.039260905 0.016490193 0.010555225 -0.033906218 -0.033140555 -0.038970266
8622 0.045085378 0.016769495 0.021501668 -0.0020796775 0.038667817 0.008588413 -0.02225639 0.016257633 0.0075165723 0.026316328
2216 0.011731008 0.037043054 -0.030147256 0.044000596 -0.036844198 0.003914718 -0.015491777 0.043487247 -0.035830412 0.03630865
9817 0.020603053 0.025893416 0.0332381 -0.04375287 0.037383694 -0.018080851 -0.021933356 -0.013079562 0.028390352 0.033666957
963 0.010067539 -0.04891349 0.03898097 -0.040980116 -0.037854623 -0.028165435 0.021178585 -0.0011373451 0.01570184 0.035325784
6604 0.047345016 0.04214547 -0.049683493 0.019322874 -0.037416246 -0.03242331 0.031225871 0.049882673 -0.026018228 0.044718813
8319 0.036489546 0.0024315612 -0.010326074 -0.04765677 -0.042210273 -0.032693196 0.010254366 -0.047012467 -0.030054456 0.021717818
8648 0.014621186 0.049469 0.047178254 -0.021347404 -0.047894526 0.043073725 -0.012391179 -0.012694577 -0.029398598 0.04804046
9143 0.018310064 0.016442092 0.038874373 -0.042925198 0.03860579 -0.015827555 0.039283026 0.010463842 -0.004159064 -0.021227231
4612 0.024106512 -0.016318263 -0.012097582 -0.016313972 -0.04811141 -0.016765233 -0.046191495 -0.002163248 0.022871716 0.0063917134
3917 0.011546067 0.011179808 -0.028888732 0.015342149 0.044051625 0.025066875 -0.0052900747 0.0073840837 -0.042878594 0.022401717
1388 0.04170545 -0.032754987 0.0063658934 -0.034942262 -0.0011693258 -0.027168741 -0.001937809 0.041431542 -0.042669833 0.04331609
6499 -0.025564088 0.045412492 -0.04795921 0.011029088 0.0049804803 0.04747837 0.011787785 -0.00016901061 -0.007471477 -0.02489198
9161 -0.023310315 0.04859754 0.036900572 -0.046566486 0.034870904 -0.029439019 0.04396485 0.02261873 -0.00052911445 -0.019883454
1991 0.020370333 -0.015310558 0.017225081 0.026896693 -0.038731676 -0.04503541 -0.0031407673 0.023785835 0.020250728 -0.018438593
8347 0.0014808206 -0.040201083 0.0011299887 0.015578482 0.0036215938 0.022718012 0.009709019 -0.043970793 -0.025244216 -0.033869386
5532 -0.04789866 -0.0021376528 0.014781179 0.0038961773 -0.011649419 -0.032296207 0.028913079 -0.04861482 0.016457083 0.048497908
3300 -0.03209881 0.004880878 0.02892852 -0.01925379 -0.022244813 -0.009899264 -0.02396947 -0.023384215 0.02341017 0.045946937
466 0.0055929683 0.03181709 0.047342382 -0.010135375 0.007539017 0.022644404 0.0136335045 -0.033230145 0.014626329 0.046195887
8281 -0.044085238 -0.018171066 0.02302975 -0.022941979 -0.0405677 0.013886061 0.017215148 0.017605407 -0.017271359 -0.01144943
8071 -0.012320497 0.020011889 -0.018470306 0.019947255 -0.012176633 0.01257844 0.021801313 0.031172298 0.00992651 0.0026808525
1974 0.03227881 0.04933145 0.021982556 0.030194966 -0.032504987 -0.040880784 -0.0042968397 0.014791742 -0.012820101 0.042361293
5838 0.043897126 0.049266774 -0.027242824 -0.023019446 0.033463243 0.042517588 0.0032765854 0.015806355 -0.041168462 0.0170397
5986 0.03177308 -0.025261343 0.0153200235 0.0271027 0.004157767 0.04590658 -0.04811711 0.004405779 -0.012711993 0.033900157
478 -0.010269265 0.025482213 0.025991384 0.024147404 -0.004976684 0.043760642 0.018813437 -0.0035668733 0.019990563 -0.03194731
1797 0.0080965925 -0.0040399274 0.042800225 0.011558849 -0.03780407 0.0009362276 0.013924559 -0.027069042 0.028944412 -0.045103
4125 0.03227678 -0.044956133 0.031517927 -0.009784135 -0.008777429 -0.037306193 -0.017442988 0.030040495 -0.009537042 -0.031440936
3974 -0.020720242 0.040268656 0.035381906 -0.043213926 -0.0062154834 0.00495045 -0.044180855 -0.017941514 -0.022446942 -0.04586998
6830 0.040817015 0.04792434 0.026606603 -0.039879587 -0.027184518 0.027334986 0.0315507 -0.04163742 0.0040817615 0.030470632
9296 0.032357253 0.032182716 0.04698181 0.023548573 0.008055812 -0.029655011 0.011375471 0.004375811 0.015269023 0.038539488
578 -0.03784245 -0.027868787 -0.035758972 -0.040622093 -0.048034336 0.03352112 0.029926391 0.0007625546 -0.035151105 -0.022842469
609 -0.03323713 -0.012951941 -0.016617404 0.018699361 -0.0118769 -0.04635519 0.04322311 -0.023837812 -0.026345994 0.014052913
1798 0.049572084 -0.034617346 0.020835973 0.0022355935 -0.01256812 -0.03750837 0.028123375 -0.00050102203 0.014893224 0.02186188
3193 0.019458022 0.041675396 0.024130398 0.038624465 0.019901903 -0.023005275 0.026544493 0.041986365 -0.012073296 0.028913751
5828 -0.01305345 -0.025878508 0.012473561 -0.02871848 -0.0008456826 0.005704105 -0.014490514 0.040671237 0.030642116 -0.006423724
127 -0.00050582807 -0.005199269 -0.017074771 0.012459063 0.049469188 0.04225469 0.043146994 -0.015818818 0.045561273 0.03573478
5922 -0.038329117 0.012004793 -0.0065581845 -0.005211943 -0.035014726 0.0009644445 0.048623614 0.0008982383 0.012451315 -0.0209553
4870 0.019174406 -0.024237446 0.013359842 0.009272195 -0.0033536574 -0.038366236 0.030200625 -0.025387485 -0.024135144 0.030675063
5525 0.0015487297 -0.024357446 -0.0039280844 0.025207376 -0.01383019 -0.018031666 0.0002680522 0.0034206726 0.028525123 -0.028270822
3051 -0.016860487 -0.0025796322 -0.023830926 0.008802325 -0.033954524 0.010007719 -0.013889091 -0.035467792 -0.010851145 0.029444724
8760 0.020514932 -0.017088214 0.03484841 0.021678936 0.04317228 0.0462274 -0.02883263 0.0483291 -0.00467766 0.008630103
6280 0.0015709198 0.020142715 -0.016788831 -0.021195374 0.017492127 0.022786213 -0.023940545 0.035570577 0.03609744 -0.031766642
9162 -0.045463018 0.03950352 0.018500397 -0.0153102325 -0.007502477 -0.027398782 -0.01680483 0.0353325 0.01777823 0.0008405027
9139 -0.019025825 0.011963823 0.03617767 0.041040957 0.00977279 -0.044001658 0.023632463 0.043752324 0.032393873 -0.0073643075
3865 0.010548216 -0.02028123 -0.004604274 0.04385946 0.028402032 0.017744174 -0.034486797 -0.028000377 0.027309002 -0.009461753
1844 -0.008904007 -0.017829048 -0.028240403 -0.030379781 0.006414437 0.030241737 -0.02018582 0.011237589 -0.0019054476 -0.0042624744
3732 0.016362969 0.04341802 -0.01687916 0.030138355 -0.022487057 -0.02114938 0.018199673 -0.018247548 0.027823089 -0.0057672253
2202 0.005316177 0.030841254 -0.009264836 -0.004736588 0.036505587 -0.0141771855 0.045245416 0.0040124226 -0.0037681742 0.041059706
9095 0.0002979124 -0.027663078 -0.038844246 0.020252392 -0.037196167 0.017195733 -0.014243928 -0.03634152 0.01965084 -0.015597032
6434 -0.03946796 0.024727793 -0.03125782 -0.005877482 0.021995548 -0.028150655 0.00092098257 -0.043913312 0.049211867 -0.0026559683
2580 -0.02834159 0.0050383303 0.044686526 -0.01514362 0.014597852 -0.04294662 -0.037402086 0.047581542 -0.0200402 0.019378267
7884 -0.0041134884 -0.033290014 0.010999434 0.025136638 0.02357633 0.023257239 -0.03550927 0.009247341 -0.041977234 -0.040434055
1938 -0.0061862194 0.015077126 0.03416326 0.03802053 -0.009637924 -0.00068588014 -0.015333691 0.00069616205 0.038458556 0.03910119
272 -0.026884409 0.03079939 0.038664393 0.03889682 0.04683619 0.044501465 0.026753364 0.04980831 -0.04793401 0.03579124
5147 0.0067325514 0.032341532 0.006358647 0.0015137146 0.034998927 -0.009701224 0.041130297 0.034897923 -0.015590753 0.04022229
6240 0.031393316 -0.044923496 -0.0043585156 0.03190679 -0.04475507 -0.035705447 0.0430734 -0.0068607433 0.031643305 -0.025793074
6496 0.02507457 -0.040239908 0.048107676 0.041999377 -0.023701994 -0.04752048 0.034189817 -0.04768255 0.0394387 0.04729873
221 0.025997858 -0.032184485 -0.0072246925 0.023601765 0.035950966 -0.047664117 0.04194778 0.023165546 0.03534712 0.0077746385
7214 0.008420606 0.016960043 -0.009539368 -0.015118234 0.012337404 -0.038126256 -0.020858271 0.039306335 -0.01599085 0.005799757
2055 -0.030930623 -0.03133999 0.01732463 0.0408446 0.024329115 -0.025341153 -0.043862287 0.0030343183 -0.0076553375 -0.03594094
1623 -0.019595042 -0.027393613 -0.04747873 -0.018305613 0.04665987 0.03123765 -0.0071392097 -0.035021327 -0.04664505 0.041215647
2339 0.045014165 0.019862581 -0.032674063 -0.030781606 -0.027024953 0.043160595 0.02096643 -0.007857194 0.03374362 -0.018930597
1806 -0.032716535 0.017904984 -0.035430666 0.02093222 0.018327896 -0.00050134823 0.035434507 -0.046130806 -0.02482732 0.009393617
9901 0.03574517 0.026227351 0.020556813 0.011154667 0.017848702 -0.03974346 0.040035058 0.043289866 -0.025915809 -0.010282235
1733 0.015335496 0.0016139562 -0.024555722 0.016465567 -0.030106314 0.037100945 0.049549732 -0.026278542 -0.022631047 -8.2857165e-05
6128 -0.03627079 -0.015829092 -0.023229998 -0.007973036 -0.04819262 0.03531613 -0.016578838 -0.02449289 -0.0041199834 -0.03650885
1375 0.00563815 0.008953611 -0.044924166 -0.017877372 -0.048132766 0.00084466446 -0.03700513 0.04531854 -0.034170486 0.0031350954
1990 -0.04386488 0.030379955 -0.021728283 -0.019615894 -0.007630951 0.036918666 -0.047086928 0.017743 0.046410885 -0.040888913
9527 0.043551072 -0.022642853 0.012582697 -0.034763962 -0.02318863 -0.0011119955 0.047717877 0.04764797 0.020517789 -0.0057622637
9676 -0.03629232 -0.038854394 0.048650727 -0.017702192 -0.04854584 -0.03184184 0.047211062 -0.046144396 0.03285747 -0.015156374
1671 -0.03215214 -0.011684176 0.046591632 -0.031953257 0.0020589915 -0.028367171 -0.04108497 -0.022966877 0.027869906 0.02618015
5850 -0.035370737 0.017222129 0.03150268 0.046149433 -0.030392872 -0.024579175 0.011422659 0.04216103 0.04006801 -0.04906064
1403 0.042522535 -0.005433258 0.004348307 0.034397937 0.0034191792 -0.040237013 -0.04073098 -0.039649785 -0.033830248 0.028842734
5135 0.034376238 0.027444772 -0.016891362 -0.008084222 0.014844001 -0.020516656 0.0041292943 0.049007915 0.019096045 0.014453369
3784 -0.041717954 0.03628198 -0.029334143 0.0012467654 0.0478637 0.03418246 -0.013650387 0.009696177 -0.0075998725 0.046704996
7087 -0.041919857 0.02782447 -0.04647589 0.046994038 -0.010451932 0.037647076 0.046918824 0.015624952 0.03374271 0.012076838
1607 0.031071322 0.029896166 0.018313525 0.009610593 0.019067127 0.0002292033 0.041766893 0.016630417 -0.027356694 -0.047957197
518 -0.043781225 -0.017742665 -0.027399141 -0.049291544 -0.023855392 -0.03063285 -0.022290364 0.038121723 -0.022914788 -0.016044745
5379 -0.030188864 -0.014239267 -0.015578357 0.015520143 -0.030624613 0.042025678 -0.009152274 0.00936232 -0.03440157 -0.04965896
951 0.03327155 -0.039512195 0.021078523 0.029662974 0.007234714 0.011549641 -0.0005971765 0.04015279 0.016366135 -0.03861502
3766 -0.03886291 0.0073042484 0.036865704 -0.036950383 0.0032491782 0.025818147 0.029404787 -0.03152375 0.0009474 0.0055219494
3854 -0.0012897119 0.03139068 -0.02058123 -0.04117394 0.049436968 0.018563585 -0.0007056501 0.0029406722 0.038706858 -0.020907525
1889 -0.013314495 -0.014793702 -0.004145373 -0.030567244 -0.019353068 0.006161173 -0.04004817 -0.044443786 0.017578483 -0.04874071
8482 -0.008119629 0.02004205 -0.045006827 0.03737918 -0.03750241 -0.044546653 -0.020891897 -0.029211598 0.03644025 0.0022244316
4979 0.021257548 -0.048702966 -0.009568581 -0.0056382953 0.01273746 -0.03130947 0.02051592 -0.012334675 0.008810962 0.028387567
7784 -0.01925404 -0.010278967 -0.0011247804 0.029504647 0.012192856 0.03427296 -0.015115604 0.037711 0.0067979405 -0.0072854324
7347 0.03758223 -0.01995811 -0.03503545 -0.04997517 -0.04596595 0.0030971104 0.035245128 -0.03976117 -0.046298716 0.042369254
431 0.043530613 -0.03455661 0.0016381223 0.021745604 -0.044913758 0.0015025502 0.040424343 -0.0010949292 -0.0075941975 -0.018772354
5307 0.0006026035 -0.018953681 0.00953328 0.04125898 0.010865222 -0.011772566 0.034173373 0.019709123 -0.042285766 0.04527389
5495 -0.01651717 0.03528837 0.04475347 0.02835835 0.001474357 -0.0010543831 -0.0062568574 -0.030334258 -0.029230328 -0.02929484
328 0.042586364 0.0035342223 0.028772563 0.03207916 -0.00018558244 -0.049313605 0.0016758646 0.026521083 0.041375738 -0.030146144
5614 -0.0076057552 -0.023424795 -0.0057199094 0.0017648923 0.021222359 -0.034319982 -0.019979607 0.014038176 0.007976987 0.016616518
5109 0.028764602 -0.024455473 0.017901951 0.019924264 -0.027949985 -0.036769297 0.030151438 -0.04681819 -0.01235146 -0.019698158
7317 -0.00121831 0.011312693 -0.024720166 -0.018795844 0.009806866 -0.00055126316 -0.00953788 -0.008582997 -0.047277216 -0.0032039767
1685 0.03635961 0.0145383505 0.014769043 -0.01148976 0.00987661 0.032422636 -0.011146787 0.025415946 -0.0007244342 -0.04868665
6637 -0.027886558 -0.003774868 0.049344968 -0.00681204 0.01623293 -0.006681249 -0.046560112 0.030706441 -0.040892232 -0.023764266
3255 0.02604881 0.0132625885 0.015492986 -0.029581176 0.048326127 0.03256885 0.021596018 0.03691589 -0.045964867 -0.016316582
6016 0.040214397 0.010084723 0.025460025 -0.028529149 0.027680397 -0.030866405 -0.03516575 -0.014094009 -0.026521321 -0.021857727
3007 -0.010547655 0.008818951 -0.010936421 0.044053845 -0.044028018 0.042250082 -0.037563078 0.0035993129 0.042803407 0.025163518
1973 0.0013901417 0.02247942 -0.02510009 0.006222231 0.02454362 0.02334846 0.0039919317 -0.013164941 -0.020714805 -0.034818016
8187 -0.007180678 0.016775046 -0.001238712 -0.009903066 0.048362345 0.043957733 0.041180234 -0.030099725 0.00065879524 -0.024229337
8286 0.039832447 -0.024870433 0.012722056 -0.027470129 0.039677974 0.021071706 0.033245888 -0.010634509 -0.0001636875 -0.03154598
923 0.044606693 0.024041599 0.043431237 0.0079787 -0.025682446 0.04381372 0.0049726292 -0.035630357 0.037824605 0.034104645
669 0.0016169813 -0.038366362 0.012091592 -0.0048872177 -0.020080062 -0.023050135 0.04442368 0.038283296 0.001132938 -0.018468328
5861 0.022798602 -0.035144288 -0.010877843 -0.020453807 0.04062363 0.030760258 0.026926775 -0.024026038 -0.03372543 -0.030026995
3878 -0.01687526 0.004852412 -0.029605048 0.041632015 -0.04173049 -0.022179402 0.048425682 -0.020757236 -0.023825498 0.024955485
179 -0.035358764 -0.022592276 0.029095516 0.044668727 -0.020428333 -0.016830642 0.010479458 -0.020156972 -0.009201598 0.01149702
2082 -0.039148312 0.005162959 -0.045265015 -0.032805316 0.032579094 0.035912104 -0.029328726 -0.030951539 0.019387998 0.02857319
7044 -0.02967965 0.0077024354 0.04633468 -0.031080557 0.036260255 -0.011475173 -0.032737233 0.024990221 0.047787923 0.0173232
6587 -0.04729356 0.025136342 -0.0065961997 -0.030776162 -0.042479735 -0.017162785 0.00083294103 0.00096839207 -0.041262217 -0.03951541
4342 -0.04567521 0.031769484 -0.018019738 0.03185079 0.022705596 -0.047970835 -0.038121216 0.03979316 0.03774861 0.013758646
7925 0.015651561 -0.040506907 0.018808173 0.017065741 0.004115596 -0.039775148 0.018810663 -0.0059588794 -0.0330776 -0.026865069
7084 0.02977492 0.010983068 0.0022536889 0.029862981 -0.0017918595 0.029645894 -0.010379816 0.048625205 0.014678433 0.028605375
1113 0.027184665 0.00531128 0.039863653 -0.0021997052 0.0073859086 -0.047741763 0.004624752 -0.014142027 -0.043365683 -0.014248687
257 0.029860906 -0.015873676 -0.021588761 0.02305171 0.016504984 0.0028523232 -0.015543447 -0.01839829 0.03210277 0.015060691
1525 -0.0062425532 -0.049353 0.03494056 -0.037581667 0.016443107 0.04695467 0.017077206 -0.025738012 -0.036674954 0.026330393
2323 -0.047197327 -0.028478108 0.048477132 -0.029271742 -0.0014515257 0.032815482 -0.02110124 -0.003352072 0.042990826 -0.04681588
7945 -0.019165462 -0.03486136 0.010680355 0.04741849 -0.016502693 0.04723393 0.045030337 -0.02219893 0.014721224 0.036934376
9571 -0.029373083 0.038110256 0.021109952 -0.04663308 -0.04219675 -0.0020619554 0.029934682 4.699651e-06 -0.04152927 -0.0194212
6450 -0.048329197 -0.03998805 -0.048023157 -0.04693495 0.019377057 0.021872351 0.032803204 0.039965626 0.0050214445 0.0024266238
9308 0.01965196 -0.005797403 0.0294264 0.0011272084 -0.013508394 -0.014284303 0.044363488 -0.04989761 -0.04202626 -0.0155067975
1185 0.018976608 -0.034986753 -0.047022674 0.045114763 -0.043952145 -0.048588246 0.008797985 0.0011981551 0.043672513 0.020254014
7088 0.041220617 -0.026371332 -0.02023182 -0.016944686 0.008774536 0.045908574 -0.022965709 0.044332333 -0.04153057 0.0014524718
1701 0.035916172 0.01887787 0.0024528434 0.011762193 0.02700553 -0.007357507 0.04350124 -0.0365848 0.044992458 -0.0010901814
1866 -0.00020380135 0.04276991 -0.00978948 0.01638198 -0.03477927 -0.049126297 -0.013154926 -0.04986508 0.014447814 0.020707058
6916 0.013158548 -0.04124321 0.015958443 -0.037570518 -0.04086183 -0.044083532 -0.0024868287 -0.032260086 0.045771867 0.024602516
8787 -0.021493616 0.013515827 0.041750465 0.005792084 -0.022063117 0.042331845 0.002063022 0.031846724 0.046908893 0.019392917
5500 0.03044892 -0.02940689 -0.04723872 0.019026091 -0.02412552 0.018741507 0.014837452 -0.04396036 0.043140557 0.04833386
8418 0.007901863 -0.018273532 0.042307705 -0.01752201 0.035655547 -0.025399849 -0.019428581 0.015561909 0.008002206 -0.019790612
2280 0.015135557 -0.044273183 -0.028379073 0.04238955 -0.028214073 0.042906538 0.025178578 0.048992828 -0.019608177 -0.043608822
1565 -0.037208375 0.029314963 0.0036947266 0.0020883407 -0.021123962 0.035580136 -0.036182474 0.017358227 0.02900522 0.03625774
1988 0.040238295 -0.03988817 0.020858353 -0.047110055 0.027505144 -0.004635556 -0.03154553 0.0020847078 0.034222294 -0.028364765
9202 0.03337373 0.03390016 -0.0029474366 -0.008246617 -0.022694858 0.04140923 -0.024873499 0.0072134444 -0.04728661 0.035845894
2894 0.019527555 0.015110172 0.048949346 0.020316115 0.010093264 -0.048326083 0.0051226486 -0.0057807816 -0.026217302 0.018427746
7194 -0.005832691 -0.0064718677 0.008471591 0.032321975 -0.04509064 -0.042843442 0.0105202235 -0.049456913 -0.01792222 -0.029170213
1176 0.018256485 0.028006058 0.015805257 -0.043086354 -0.044294834 0.0026547268 -0.046600927 -0.014875274 0.013648191 -0.035658516
6361 0.037720077 0.012621533 0.032108285 -0.03696118 -0.019289654 -0.022403132 0.037049238 0.040831186 0.008226668 0.004985616
6296 0.015465817 -0.033468205 -0.038839996 -0.022415528 -0.036961894 -0.027474232 -0.047672257 0.035840232 -0.04130952 0.008155825
5300 -0.0029435116 -0.02587014 0.011847025 -0.023182618 0.019229498 -0.03447304 -0.016261773 -0.03857321 0.011561695 0.021642473
8443 -0.029199284 -0.033458102 -0.027520945 -0.018329525 0.03911178 0.01896134 0.030185672 0.004248849 0.03889922 -0.02239024
8108 -0.041017603 -0.0295249 -0.01364037 0.03081827 0.011704742 0.012698531 0.043276735 0.034902867 0.008936619 0.039155666
2884 -0.0041460204 0.038044337 0.04347838 -0.035430755 -0.020209221 -0.021860367 0.035967123 -0.03651645 0.008992979 -0.00907897
7013 0.023413006 -0.04825862 0.004209759 0.049623314 0.030329922 -0.018241378 -0.015278126 -0.03814867 -0.04324863 0.004741797
7987 -0.049567446 0.0062648654 -0.025771301 -0.041138764 0.037223935 -0.016719094 0.011350299 -0.024523526 -0.015722513 0.026627272
8762 0.048514325 -0.010827749 0.025285313 0.003949263 -0.04247435 -0.01894851 -0.002366991 -0.049461715 0.02591478 0.03078128
2722 0.030687666 0.043101747 0.011998225 -0.03930175 -0.015665766 -0.035514504 0.0016710066 0.010468323 -0.035031483 -0.0038100658
6008 0.009970148 0.041558098 -0.018665597 0.03956501 -0.04457201 -0.0032947452 -0.013998533 -0.03577937 0.016140433 0.02964019
3908 -0.039552048 0.048689004 0.033908222 0.03333786 -0.020647658 0.03051859 0.03752424 -0.02042465 0.027305013 -0.018957049
7645 -0.03851762 -0.010391933 -0.013002574 0.012783048 -0.015410327 0.045593783 0.0289163 -0.044189002 0.013740127 -0.0029699604
3352 0.04061505 0.024112105 0.03273213 -0.043099966 -0.023569576 0.005555038 0.0028780752 0.0030320638 0.020183962 -0.016755376
5186 -0.033108167 -0.0027266403 0.04427258 -0.016306452 -0.02458908 -0.026420802 0.02644503 -0.016140057 0.047502857 0.03661881
2151 -0.04266089 -0.01759202 0.0016880351 0.031738065 0.019185472 0.017518781 -0.04127462 0.031520307 -0.018119233 -0.015250277
1116 -0.0073057623 -0.033442467 0.041773383 -0.03172002 -0.018960373 0.04544143 -0.0323051 0.044282764 -0.028362732 0.019329632
5870 -0.037880693 0.017632365 -0.01949014 0.012080483 0.012400738 -0.027894348 0.024139443 0.039999556 0.006301696 -0.04706047
9668 -0.0010147737 0.011670094 -0.017436171 0.03174146 -0.03900941 0.00723951 -0.0015323961 0.01560721 0.029469587 0.00962609
4492 -0.03563268 -0.038687356 0.03534579 0.038281746 -0.029302875 0.030458046 -0.036771405 0.048353385 0.02547961 0.0013138419
4922 0.009725303 -0.029906925 -0.0029378608 0.012457471 -0.04414105 -0.00682723 0.016924787 0.04627345 0.03547909 -0.026544297
613 0.042372808 -0.00036455595 0.0021146247 -0.04850234 0.020041725 0.04027017 -0.046795595 -0.023884049 0.026900733 -0.03952658
2640 -0.03747211 -0.007813271 -0.0036478164 -0.027278012 0.0028484813 -0.042538952 0.04679912 -0.007209031 -0.022097977 -0.042142697
5221 -0.022761216 -0.004794184 0.016513072 0.042506285 0.019164905 0.043241084 0.024993688 -0.009533068 -0.03807185 0.04025336
9001 -0.02493289 -0.014994518 -0.04876904 0.014655883 -0.043912224 0.019304788 -0.007428294 0.040321924 0.047733884 0.036821734
5538 0.017910574 -0.015867934 -0.028910985 0.001933366 0.03337648 -0.033211388 -0.018994745 -0.030711956 -0.030771539 -0.042500027
436 0.013560781 0.0008859967 0.027736617 0.011811518 0.012934543 -0.044280235 0.019860895 0.04129025 0.014494318 0.034466513
4033 -0.013760102 -0.048067253 0.020552855 -0.033741467 -0.028891925 0.034174528 0.0051138904 -0.026087267 0.028866852 0.040415864
9136 -0.01149563 -0.011354145 0.023435416 0.030152723 -0.037904967 -0.046565328 0.006933079 0.020370584 -0.035086323 -0.0027950183
5098 0.015342372 -0.038910996 -0.047535036 -0.02001723 -0.017102964 0.048000474 0.049677867 -0.01826572 0.041897785 -0.039443288
2367 0.035295922 0.0010435579 0.028245278 -0.008079154 0.018142445 -0.0239204 0.039446585 -0.03764125 -0.005880266 -0.011905425
9927 0.048669174 0.04444541 0.0056242435 -0.02156528 -0.042799965 -0.029264987 0.040001176 -0.00015239992 -0.042286772 -0.024753584
6469 -0.023084523 0.03329818 0.027013494 0.011834397 0.0002087481 0.026325379 -0.005334951 -0.029000947 -0.045282803 -0.010854958
5836 -0.032648355 0.04857471 0.023292156 0.04224352 0.023465544 0.013885992 -0.025928233 -0.01888258 0.047456574 -0.0030446523
8300 -0.048566256 0.021754516 -0.02155592 -0.02364301 0.02250995 -0.02622906 0.041800696 0.009575083 -0.033839747 0.037825167
6436 0.023375178 -0.045675635 -0.04716082 -0.016946232 0.014520788 0.04162097 -0.01721691 0.038956307 0.003277251 -0.03848829
5598 -0.011560731 -0.0272793 0.0125442045 -0.030109625 -0.0323637 -0.03357211 -0.0471968 -0.026414292 0.0106436815 0.0049784104
8470 -0.044463307 0.04852354 -0.013023476 0.012526259 0.0046969824 -0.014621241 0.017013092 0.042367887 0.012404481 0.0388299
7879 0.002496025 -0.04972673 -0.0352684 -0.031449113 -0.03497553 -0.041436307 -0.0043628155 0.024812074 -0.031884838 -0.019285453
4467 -0.031189943 -0.0059510735 -0.04756818 0.011352572 0.0007507041 0.019587524 0.0029057257 -0.022560652 -0.02356203 0.021486912
4967 0.004928105 0.017618097 -0.021152755 0.032632537 0.036041886 0.0049454425 -0.028141135 0.009047453 -0.02371885 0.039538004
8388 -0.020179532 -0.005524875 0.011303344 -0.035095625 0.005722233 0.039688174 0.04729249 0.02875986 0.014962985 0.021180728
1782 -0.04572476 -0.032469176 0.018824812 -0.015530389 0.037468232 0.038340766 -0.043541472 0.015654193 -0.03575869 -0.014905691
8028 0.02385956 -0.0057335906 -0.031809695 -0.020318937 0.01395376 -0.020689674 0.023170942 -0.033792086 0.0024252206 -0.0019840072
6273 0.0044622305 0.024901668 -0.041188374 0.04969887 -0.024958577 0.026517719 0.027042432 -0.039634798 -0.022646233 0.04296214
9370 0.021525785 0.038046513 -0.010619571 -0.027599707 -0.0030608005 0.0041187396 -0.0039415667 -0.047923837 0.021359235 0.015708748
2621 -0.043288372 -0.0077634067 0.0495454 -0.016297605 -0.0042139613 0.041123815 0.0018576842 0.0053570885 -0.014572027 0.012510022
7721 0.0075311097 0.01815587 -0.040199474 0.015509274 -0.029363496 -0.04915749 0.02890779 0.012893157 -0.0039825216 -0.03043992
2918 0.03455047 -0.034885023 0.024536582 -0.020252114 0.031280518 -0.023344282 -0.044207703 -0.034365013 -0.044914342 0.041614454
8707 -0.011403385 -0.03359236 -0.001031347 -0.013235754 -0.045765307 -0.03183715 -0.01363249 -0.033322714 0.030792754 0.0497627
2992 0.00037136034 0.0027919791 0.022089124 0.01867821 0.0059175873 0.019026102 0.025781348 0.022208257 0.03657397 -0.037215777
2352 -0.036129557 -0.044287868 0.00073753693 0.044629123 0.037220128 -0.025214111 0.028887881 -0.016594822 0.033085078 0.013697608
9607 0.019029165 0.012082713 0.03681893 0.0056536687 0.0097541055 0.014268031 0.04011235 0.024625935 -0.03562938 -0.04516769
4250 -0.042956818 -0.03005261 0.005493091 0.009549288 -0.012001256 -0.026773708 0.0068109278 -0.03871935 -0.004867117 0.024021644
6735 0.028869713 -0.021155654 -0.0121560665 0.024974812 -0.028996175 -0.047245797 0.034480173 0.033604816 0.013318002 -0.023012683
9582 0.00012879657 -0.003428604 0.017494872 0.025193881 -0.026872087 0.011716444 -0.002076062 0.013133277 -0.036235906 -0.044479918
6724 0.04778805 -0.006467806 -0.03264479 0.0021185125 -0.036384936 0.0350136 -0.038922384 -0.037996113 0.02029763 -0.028412616
4223 0.013230386 -0.017277965 -0.045770325 0.018541997 0.022305584 0.0034363123 0.025725467 -0.042508997 0.015693737 -0.0005379911
1183 -0.030476114 0.003795294 0.0049208784 -0.043534882 -0.040108263 0.048951223 0.04555957 0.007984921 0.040966958 0.01648161
2189 0.0018204835 0.023251431 0.03747255 -0.04737864 -0.009380044 -0.03618099 0.0069909594 -0.03630393 0.02798372 -0.023155278
9274 0.034442198 0.009101613 0.020959523 0.003573779 -0.014386687 0.011233895 -0.028730666 0.0033390718 0.037312686 -0.029307636
3147 0.022910226 -0.018278247 0.0054388964 0.032337707 0.028118812 0.027108388 0.0148217585 0.017268103 -0.04072167 -0.0433801
3642 0.04466941 0.01743145 -0.015686564 -0.041521885 -0.0453373 -0.010670362 -0.03520812 -0.04083421 0.005596873 0.017379062
166 -0.03659903 0.002940448 0.007244174 -0.0020305372 0.025107458 -0.048628088 -0.0427807 0.045719214 -0.022926709 0.049674872
2842 0.047736093 0.00093164435 0.027436163 0.0046639587 0.03705876 0.035701472 0.007329772 0.025112549 -0.03391019 0.01478457
3706 -0.025529247 0.0032229687 -0.031294703 -0.044375055 0.0013205016 -0.013735646 -0.024324866 0.022128522 0.049937844 -0.026430154
1188 0.036637094 -0.0241621 -0.021685882 0.0015499624 -0.0048052613 -0.029622987 -0.03967166 0.016602797 0.041687656 -0.041271247
2398 -0.04144001 0.0074087763 0.023500798 0.042861987 -0.018578323 -0.007578193 -0.009805511 0.03548911 0.022962408 -0.023133537
6689 0.031224333 0.03220943 -0.03740638 -0.0057566348 -0.007268919 -0.044259362 0.033732306 -0.038707394 -0.018588034 0.02335656
10006 0.045147642 -0.018659363 0.006460092 0.013952954 -0.0038523918 -0.017314956 0.024615863 0.045777094 0.016276803 -0.019040333
3924 0.031175477 0.043957394 0.007398228 0.032607846 0.018347045 -0.016990121 0.01310944 -0.005016097 0.019903282 -0.00865257
9803 -0.031991035 0.00042751472 -0.002237926 -0.0066152867 -0.018062115 -0.016064407 -0.026336571 0.004646668 -0.04536867 0.036188472
2598 0.023356417 0.0017653835 -0.03563387 -0.04091381 0.0126599325 -0.038124867 -3.1537124e-06 -0.029995333 -0.049681075 0.027411206
3768 0.0016032403 -0.005113394 -0.0011804076 -0.0172906 0.040304657 0.018250825 -0.04579075 -0.048220918 -0.043152496 0.032154404
9470 0.047101982 -0.030496206 -0.01910706 0.03317148 0.017525056 0.043800604 -0.02285611 -0.037141234 0.016669039 -0.021436559
9702 -0.00937437 -0.03429807 -0.0068677966 -0.03382512 -0.0020325882 0.021788422 0.03271189 -0.005331198 -0.038421165 -0.008101671
3252 0.005283281 0.018466804 -0.041019466 0.042843793 -0.0070349704 0.008561853 0.04698829 0.040628754 0.016690748 0.021565769
9811 0.021853276 0.022997027 0.009472462 0.021220833 -0.004166836 -0.03416519 -0.02923141 0.03154379 -0.03921364 -0.02122647
9675 0.01401896 0.038347762 0.01144065 -0.02569108 0.005234539 -0.008932842 -0.024277773 0.039223272 0.028863963 0.01779042
5015 0.04552115 0.009150699 -0.017832672 0.026586007 0.021696053 0.048464876 0.025264012 0.038693406 -0.002193496 0.040878154
3635 -0.040800404 0.007389843 0.039528072 -0.000487889 -0.03910078 0.03480525 -0.032018855 0.032783225 0.0014797238 0.022399172
8567 0.033453293 0.0068022753 -0.03179666 -0.030734666 0.036218584 0.015819442 -0.04974568 -0.01296902 0.032914244 0.037524007
1676 0.022467146 0.017809704 -0.047946457 0.04379649 -0.018798206 -0.014273982 0.023636173 0.0052762837 0.010143204 -0.041533694
4298 0.02165343 -0.033827875 -0.036253978 -0.033034652 -0.00971064 0.013466452 0.041658875 -0.030100603 -0.030996634 0.0036400626
4563 0.020648846 0.025827635 0.024187192 -0.0042461473 -0.018211337 -0.040647987 0.006423449 0.016349325 -0.037839223 0.027866887
8950 -0.037936263 -0.018116863 0.0045314464 0.032270085 0.04244127 0.04866377 -0.029655756 -0.049515914 -0.0019321912 -0.03013392
7571 0.0013408001 -0.022166543 0.021241857 0.019546892 0.01024415 0.00210019 -0.028514888 0.03739024 -0.011324552 -0.023861604
7902 0.049949117 0.010400305 0.026388811 0.045566276 -0.04837263 -0.04865259 -0.0149556445 0.006957753 0.010052768 0.015367216
1251 0.04171788 0.014900369 -0.014401288 -0.03980172 0.049254507 -0.0068973335 0.041245576 0.02560963 -0.04703679 0.019249331
62 -0.0005238755 -0.04019422 -0.013449372 0.029230589 0.023631476 0.034101784 -0.024340395 0.015508626 0.025431596 0.030413335
1655 -0.009144254 0.005919402 0.028281162 0.047162354 0.0043493253 -0.015233175 0.025086237 -0.030147476 0.047332775 0.0011391314
4862 0.016754422 -0.04627032 0.04547653 0.005080108 0.011018886 0.005249042 -0.008958932 0.01389216 0.009973754 0.03568568
7966 0.021010086 0.04242377 -0.049510468 0.028880443 -0.0013324242 0.010661862 -0.005664855 -0.019036612 0.037734456 -0.0395563
9653 0.047101695 0.037865456 -0.02043326 -0.012040037 0.0050239507 -0.03426556 -0.008643462 0.028174914 -0.019492144 -0.040438935
7513 0.03672913 0.010569351 0.035095476 0.026438896 0.042635128 0.02563716 0.047513597 -0.037217267 -0.033037513 0.03569453
9508 -0.013794073 0.04816699 0.015384672 -0.04473765 -0.031168422 0.033937693 -0.032622095 -0.024627391 -0.022905193 -0.045301743
9276 -0.024722727 0.0014712965 0.00028389963 -0.010996663 -0.04902622 -0.026196584 -0.021075781 -0.0016321245 0.02317358 -0.041961476
1922 -0.047533628 0.048358362 0.021843508 0.04857396 0.038754318 0.016708529 -0.0008173071 -0.0032380733 -0.044071943 -0.021353325
9961 -0.04968413 -0.02710649 0.005849171 0.035378553 -0.03182307 0.045227937 -0.02653166 -0.011476073 -0.044150252 -0.010996796
226 -0.0007200222 -0.011088379 -0.03372882 -0.044265788 0.016077464 0.009992047 -0.025897756 0.03613342 -0.009489255 0.010125507
3693 -0.00096155686 -0.007234782 0.024413273 0.0040155533 0.042783767 -0.011810363 -0.015231116 0.014204493 0.046574008 -0.015839798
301 0.02780599 -0.023614952 -0.0278179 0.026552863 0.029302632 -0.04995083 0.03812351 0.03930239 -0.020784529 -0.017188566
9752 0.033696257 -0.0037464593 0.028163975 -0.008927505 -0.013960909 -0.04368902 -0.030478137 0.02770431 0.019988189 -0.02926186
5228 -0.0049268967 -0.019269217 -0.033321902 0.00028748706 0.031927604 0.04815624 0.04056831 -0.016677268 0.003738136 0.019895114
3713 0.0014269165 0.024207938 0.037995778 -0.028946446 -0.043828737 0.020780286 -0.04962061 -0.030805882 0.01441839 -0.00050464604
2855 0.007915359 0.008325038 0.03969538 0.011429182 0.016175559 -0.003296262 0.028704813 -0.011436502 -0.005926198 0.0121940365
5712 -0.033232756 0.048712168 -0.04703702 0.030233951 -0.013328665 -0.0360671 0.030283496 -0.028057562 0.01967568 -0.032050394
1964 0.02509098 0.008327032 0.034881182 -0.00302032 0.009409226 0.015610227 -0.049010146 0.008097974 0.010150436 -0.017564032
1526 0.044269565 -0.022604533 -0.01668328 0.04996874 0.026943091 -0.027053196 0.028242938 0.02495433 -0.048151467 0.02149174
6962 0.009358969 0.04628698 -0.029313538 -0.03479756 -0.004343332 0.014024337 0.025691094 0.012400896 -0.016364666 0.015733864
5056 0.0075563863 -0.008225648 0.004069925 -0.045531992 -0.04988258 -0.040449727 0.018052438 0.024342488 -0.017575506 0.045789666
5378 0.004972588 -0.048113022 -0.016799174 -0.024592778 0.040759083 0.032259163 -0.009538378 -0.024165647 0.0498783 -0.00850201
7568 -0.027521946 0.045911018 -0.023358978 0.010801802 0.006710356 0.04710289 0.03992652 -0.048217177 -0.042924225 0.01727416
5259 -0.021454647 0.03457029 0.004501543 -0.021600233 -0.032601796 0.010329387 0.006149187 0.042927813 -0.0038444493 0.023846984
324 0.0035524908 -0.03951443 -0.017728785 0.0349867 -0.03725578 0.035258863 0.025602445 0.043066535 -0.0132821305 -0.022719663
2956 0.000415941 0.0045988 -0.02493015 -0.006667168 0.02271588 0.012723381 0.029124904 0.04514156 -0.017096449 0.010245153
1407 -0.0215775 -0.042441744 -0.016606268 0.0045193355 -0.026741777 0.0438538 -0.011277003 -0.0069242343 -0.013853629 0.010934176
580 0.023064613 0.042550154 0.028917234 1.3025489e-05 -0.04122525 -0.013247971 0.013295463 -0.035887815 0.009818267 -0.024483604
4681 -0.049228437 -0.026375927 0.03828656 -0.044783916 0.031351704 0.028629428 0.028742785 -0.03000209 -0.0089534065 -0.049451943
5243 0.028201027 0.03250707 -0.037531503 0.024358347 0.02794451 -0.048749104 0.0034046227 -0.0005088451 0.0073717698 0.042558007
9402 0.045232072 0.04597937 -0.013595675 0.0041424194 -0.027130589 0.0009110489 0.007405819 -0.03591699 0.0076350397 0.042258736
9556 0.038556926 -0.03801888 -0.020184396 0.043992344 0.02281847 0.0018432315 0.04969374 -0.036683306 0.038668543 -0.010844896
6876 -0.034482446 0.03751416 0.046099346 -0.043077905 -0.013656252 -0.04019812 -0.023430688 0.023075433 -0.04113541 0.0146402875
7157 0.019598395 -0.039171074 -0.018688511 -0.036311604 0.018227825 0.00042457264 -0.012259348 0.045121696 0.0037355518 -0.04380451
4398 0.03932912 0.043147787 0.041073747 0.031754 0.009682767 -0.021779431 -0.010636264 -0.031018896 0.021995232 -0.0025466895
2794 0.038090646 0.014769308 0.040796746 -0.03514655 0.040533982 0.01882995 -0.03244003 -0.047867373 0.016277824 -0.027824353
3407 0.006666854 -0.020691976 -0.028018074 0.034215104 0.045704484 0.035979636 -0.014866937 -0.04603791 -0.028781489 -0.044547934
2427 0.013602954 0.0022442094 -0.024316479 -0.014743414 -0.04084123 0.026384179 -0.04810119 -0.041307487 -0.009070446 0.039817974
9241 -0.0074127745 0.037690356 0.02857893 0.018869415 -0.036763348 0.0021712233 -0.04988114 -0.045356303 0.046547316 -0.008579691
1993 0.024630953 0.01076073 0.028957572 -0.0495614 -0.004926344 -0.011936454 -0.033051677 0.007304178 0.020347236 0.026387386
7410 -0.00967398 0.028823996 -0.016339594 0.021148302 0.02225887 0.017494747 0.030516986 -0.049631257 -0.020807289 -0.030886613
6814 -0.029031485 0.0050807823 -0.04957152 -0.009505991 0.043720067 0.022508115 -0.04812242 -0.031501062 -0.048609797 -0.046613332
3613 -0.02883881 -0.04198556 -0.047386173 -0.01977177 -0.012218477 0.038754698 0.009841165 -0.025119698 0.036115654 -0.008461702
1480 0.035954583 0.030615894 -0.03603355 0.03829573 -0.012753895 0.02062151 -0.031036546 0.00018765718 0.035474706 0.043406416
7817 -0.035010975 0.03967699 0.01425571 -0.04591856 0.044297174 -0.042190988 -0.04730713 -0.011127796 0.026112625 -0.0035147022
4622 -0.00965684 0.02471863 0.013939388 0.041027665 -0.0363157 -0.033701647 -0.036879852 0.030854093 -0.015307502 -0.021869859
8714 -0.0065580965 0.02409012 0.03679057 -0.01236397 0.030618258 0.040112652 0.0078501515 0.026345553 0.017837763 -0.045159254
7038 -0.016016502 0.046489436 -0.04080929 0.01257962 0.00013991151 0.011101187 0.032318722 0.011490568 -0.028968044 0.015070392
9322 0.011061308 -0.0078090434 0.046560172 0.0043114508 0.030732827 0.013596903 0.041322656 -0.0060953833 -0.005777793 0.0142827
2875 0.0407045 -0.04788146 0.018768935 0.037865736 -0.04118387 0.038822964 0.03684356 0.039299395 0.0013952742 -0.0273248
1001 -0.0206439 -0.034514174 0.044368267 -0.048214976 -0.048200052 0.022995638 0.047255807 -0.032365903 0.021753492 0.011362872
7296 -0.036267664 -0.0047421292 -0.0002363563 -0.042632185 0.023175811 -0.017281974 -0.040129848 0.0016325088 -0.0022353146 -0.0040844185
4321 0.025565311 -0.030603014 0.006832031 0.016862368 -0.038792904 0.0074560517 0.016122533 0.035237435 0.035421032 0.013830314
1135 -0.009768519 0.019459128 0.022237558 0.048676535 0.01958052 0.024240453 -0.047453944 0.040181134 -0.0009976961 -0.033124983
4753 -0.046812993 0.0065342914 -0.030347742 -0.043175902 0.0026467755 -0.01793271 0.020775419 -0.048121963 0.035405714 -0.041799966
4441 -0.033225708 0.004287907 -0.013318128 0.012956933 -0.00659201 0.012315658 0.031427905 -0.028355593 0.03100934 0.017904894
1004 0.011401929 -0.047498427 0.03733219 -0.048856925 0.023760129 0.0124721825 -0.019636365 -0.014299479 0.04548713 0.031051887
3988 0.039327335 0.020313999 -0.02395001 0.005445434 -0.01395546 -0.04786683 0.021938808 -0.04521842 0.017261475 -0.0011444052
6309 -0.021660842 -0.027814975 0.013719259 -0.028787186 -0.04995758 -0.04261272 -0.016263612 0.015862145 -0.0067537813 -0.028582914
2496 0.038350724 0.035181712 0.012677656 0.037315242 0.03843739 0.033586204 0.03970895 -0.03557581 -0.008653742 0.037630934
1839 -0.009316192 -0.021375911 0.036558636 -0.028524093 0.013930899 -0.0008259841 0.030663438 -0.01827092 -0.019891918 0.009820474
8493 -0.024077173 0.008986349 -0.008115703 -0.014820524 0.031901304 -0.017905582 -0.023110252 -0.043795545 -0.043112647 -0.03167452
783 0.017636856 0.005778986 0.046324193 0.010031731 0.001362274 0.0011520183 -0.04971423 0.002764317 0.005445816 -0.049733035
5124 0.00784521 -0.0009932958 -0.020432314 0.037745837 -0.046219368 0.007944579 0.00894745 -0.013240809 0.019929249 -0.049730133
4826 -0.014874541 0.008820533 0.0020506259 -0.04215821 0.019220216 -0.03616805 0.038414713 0.042489074 -0.039101075 0.04657052
6197 0.03975716 0.012305234 0.041373994 -0.022434656 -0.04488769 -0.017552359 0.049661905 0.002170731 -0.0147675285 -0.014934457
4354 -0.04630444 0.025924316 -0.03899274 0.001308481 0.041478343 -0.038465567 -0.043382037 0.021224177 0.03608439 -0.020990318
4171 0.012419566 0.00090425776 0.005933956 0.026309086 0.03701996 0.021372078 -0.04952486 -0.04984814 0.02099033 0.024327349
1482 -0.013216665 0.009022557 0.005787069 0.018798841 -0.010707569 0.033767354 -0.010912197 0.009231407 -0.023558294 0.019805735
3781 0.044553105 -0.021580487 0.010925109 -0.0073617995 0.017830897 0.04225749 -0.044619117 -0.00043732693 -0.036017537 0.012680719
1128 0.04775177 0.009071231 -0.043772798 -0.019337602 0.0007067074 0.0024354828 -0.018581089 -0.023304677 -0.005303793 0.028954
4362 -0.04638709 0.02679575 0.023231277 -0.037740026 0.011011256 0.00798726 -0.01898069 -0.0060770037 -0.029569488 0.049404267
2509 0.008621605 0.014812206 0.04616695 0.0065039895 0.037220523 -0.040505134 0.03507389 0.005907877 0.021393258 0.02760481
8201 -0.029907972 0.03902466 -0.030420806 0.04833507 -0.038047675 -0.038845323 0.047865026 -0.041579127 0.046218555 0.01239584
707 0.01927912 0.028478557 0.0017167223 0.01878868 -0.031354763 -0.047298066 -0.04837975 -0.019752216 -0.026273 -0.049143266
8159 -0.0206016 0.0016388015 0.014863372 -0.006068566 -0.025779512 -0.032419506 -0.049433995 -0.031109646 -0.039286606 -0.035205714
3601 -0.01660655 -0.0039170654 0.034643725 -0.022823775 -0.014765574 0.0073555424 0.0020305663 0.015599461 -0.03407378 -0.037951887
7196 0.043559257 0.03128416 0.02716563 0.031110207 0.041814383 0.0260982 -0.041953214 -0.0030795594 0.030754551 0.0473685
1211 -0.039159585 0.039704293 -0.024983715 0.043349605 0.033969905 -0.028247282 -0.019039532 -0.019164547 0.046723474 0.02010714
9983 -0.027679933 -0.030265644 0.040723458 -0.04206784 -0.030173851 0.030011538 -0.047403734 -0.004820657 0.021039935 -0.014056318
4993 0.01878815 0.00047228107 -0.03956697 -0.040681172 -0.02431238 0.0047370037 0.009430158 -0.036949478 0.019352317 -0.01358875
4874 -0.034263406 -0.045266047 -0.045770284 0.034454666 -0.015122886 0.0063761496 -0.020726288 0.03539962 0.028907295 -0.04859284
2238 0.038348116 -0.023887021 -0.01891453 -0.019399716 0.015884206 -0.019246414 -0.022108432 -0.031802967 0.015213522 -0.03628332
1290 -0.017131122 -0.0062599406 0.02175662 -0.036164034 -0.042418305 0.009411561 0.027928965 -0.028652038 0.045306478 -0.04030461
8927 0.011804942 -0.027253224 0.032363337 0.033726048 -0.02341738 0.0349877 -0.031742074 -0.015918469 -0.004177724 -0.04256322
9598 -0.01697661 0.018256152 0.04449014 0.035947 -0.016412891 0.023303531 -0.03418424 -0.022005271 -0.029842801 0.034839302
8732 0.015727533 0.0065152864 0.018312396 0.027145937 -0.019476417 0.023816302 -0.03758725 0.040191464 0.011952907 0.03273723
2163 -0.03714626 0.004395438 0.003587455 0.014641541 0.023602845 0.029576764 -0.035914082 0.005416875 0.016076019 0.048346095
4808 0.026697181 -0.048962783 0.018195398 0.0005220732 0.011819739 -0.02730813 -0.018720128 -0.040942512 0.025464734 0.025537945
3473 -0.007519577 0.03991297 0.030588165 0.04418203 0.026807297 0.046760656 0.0030216626 -0.04213109 -0.039869457 -0.013503099
2834 0.049351223 -0.024069404 -0.028567923 0.014605051 -0.036255416 -0.022662958 -0.02348013 0.02281888 0.03415651 0.03422379
4220 0.026595788 -0.04020287 0.008368298 0.017719375 0.004865169 0.0020359522 0.010301848 0.014093548 -0.034580443 0.032542195
6622 0.0062710796 -0.044066172 -0.02956215 0.03761313 -0.0163919 0.027295489 0.02740752 0.046763383 0.013964592 -0.027907386
5695 0.031982463 -0.038702507 -0.034624007 -0.036530744 -0.019312838 0.024943309 -0.012846379 0.03713326 -0.04816081 0.0071212603
8913 0.046051763 0.020619242 -0.020718375 0.02896437 -0.020273631 -0.010859281 0.040760003 -0.046549603 -0.0009720618 -0.01770521
3159 -0.04457361 -0.034989644 -0.0022554074 0.018887486 -0.037229706 0.017812604 0.0041434574 -0.005230936 -0.02237632 -0.0010527587
7488 0.03975271 0.041062552 -0.012435453 0.020171713 0.035670076 -0.029796833 -0.041239664 -0.032135785 0.04760614 0.012811668
7278 -0.048336074 0.008706179 0.044991765 -0.030848391 0.049750276 0.011255234 0.040761594 -0.03659735 -0.022174431 -0.0420708
7653 -0.00887668 0.017766463 -0.014906565 0.034937855 0.006849372 0.0047731223 -0.0055200425 0.026842663 -0.038225636 0.0031644776
8226 0.015973844 -0.016434258 0.04010532 -0.036398645 0.04891948 -0.024126519 -0.00645661 -0.012086141 0.026605232 0.008828928
702 -0.003407569 -0.009863012 -0.014748963 -0.0044680117 -0.012268502 0.027120657 -0.008300979 -0.011685517 0.028959896 0.044717666
7352 -7.365809e-05 0.045343343 0.049751475 -0.03950745 -0.024439514 0.017193409 0.047959566 0.028879972 0.04579796 0.016736614
4932 -0.005601805 -0.02574519 0.033082936 0.048339307 -0.008916329 0.04024617 0.038486924 -0.043361846 0.032283578 0.01340457
4313 -0.011479092 -0.03511053 0.030801263 0.03350984 -0.027857073 -0.028622787 -0.019867139 -0.0024836785 0.03719289 0.035717156
2633 0.006800313 0.03528919 -0.009571705 0.023244759 0.037785064 -0.0032641687 0.023641217 -0.033850003 0.030186268 -0.005191539
7299 -0.03815902 -0.04575472 -0.01301374 0.045960397 0.04590497 0.047144786 -0.023386776 0.039037775 -0.014696287 -0.001050422
4340 0.008090342 -0.02267477 -0.018066408 -0.018526461 0.04568448 -0.028803522 -0.038883902 0.0052539324 0.0024742351 -0.008574431
3889 0.04877781 -0.03828178 -0.01877258 -0.0307611 -0.042191792 0.03112342 -0.0059897834 -0.042870604 0.030909622 -0.035494972
2702 0.013577643 0.026800066 -0.04369353 0.0048882593 -0.0258179 0.0007832409 -0.009375793 -0.0046538482 -0.02650509 -0.012598239
7480 -0.004200906 -0.02100096 0.04224423 0.04135873 0.025790773 0.02466957 -0.049279775 -0.031048456 0.0071220836 0.026694901
9494 0.029978422 0.024300367 0.01210877 0.02445992 -0.037637543 0.038779084 0.0053858026 0.038620863 0.009260875 -0.030872468
6143 -0.019314473 -0.028435979 -0.034962755 0.014540247 -0.042668715 0.00035250766 0.02569699 -0.04833048 -0.0024886758 0.0076487623
4170 0.034656357 0.038705513 0.04460342 0.011877285 -0.004584085 -0.025698364 -0.039758712 -0.030318603 -0.011291168 0.03718647
1519 -0.027641008 -0.0205001 0.018809693 0.04868427 -0.01172019 0.031856537 -0.03173536 0.026511822 0.046990097 0.04430668
4381 -0.045003206 -0.020113802 0.04039686 -0.03493735 0.04463363 -0.047339216 -0.0031280173 -0.049865577 0.04681377 -0.026102832
1082 0.007942466 0.008719714 0.04580051 0.034230094 -0.008905744 0.040692396 -0.0062122885 -0.03933684 -0.042641304 -0.035416007
1794 0.015551498 0.009502859 -0.03812172 0.029019319 0.044105213 0.04921881 -4.8054502e-05 0.038654424 -0.023179928 0.022388844
5722 -0.0317754 0.027823875 0.029634614 0.009291394 0.015451069 -0.03432694 0.047636352 0.0034189667 0.028377695 -0.019065984
2963 0.0034266387 -0.022497263 -0.014915689 0.02003809 0.027392784 -0.0067862323 -0.023604004 0.03167477 0.0035615908 0.03231524
9295 -0.011349617 0.047475755 -0.03748211 0.027938865 0.02317318 0.026103266 0.006501449 -0.010232696 0.022151943 0.015481169
352 -0.030631581 -0.04504559 -0.033664756 0.04994899 -0.040567383 0.046962637 -0.032978997 0.011189081 -0.024456736 0.035518393
7082 -0.018604556 -0.038031857 -0.03446633 -0.048332773 0.01406582 -0.04179722 -0.017424056 -0.011010974 -0.02870055 0.009147864
8227 -0.038936086 -0.03662066 0.04850109 -0.03643934 0.031759884 -0.032743946 0.010219715 -0.014741059 0.040805496 -0.0077082664
1536 -0.03727817 -0.033064924 0.022840297 0.02727023 -0.016544567 -0.024973594 0.035830315 -0.012274421 -0.024639307 0.029581467
2385 -0.038544834 0.04498314 0.044949047 -0.017299606 -0.0110601345 -0.01445634 0.047182918 0.044466857 0.008489493 -0.045008913
3800 -0.043629218 -0.028742079 -0.012289891 -0.014465223 0.044034567 0.0008198554 0.018977564 -0.01926393 0.022270625 -0.005981057
2221 0.044495616 0.034068126 0.022686452 0.041016642 0.039942905 0.03313414 0.028020822 0.031719945 -0.023332285 -0.0038066173
6152 0.034373634 0.034943607 0.026965778 0.01830745 0.038000863 -0.019938044 0.033846587 -0.020299261 0.037586775 -0.04826808
1357 0.036852382 -0.010452341 0.033049513 0.040001355 -0.00012329318 -0.0069394954 -0.028693838 -0.03429112 -0.040185176 -0.011040016
5390 -0.021295257 -0.044187766 -0.044475123 -0.025081554 0.046729922 -0.014671982 0.022173513 -0.0018415648 -0.03186746 0.033154815
5279 0.035781987 0.028992642 -0.022293098 0.022914149 -0.032692477 0.039476078 -0.028371725 0.0227673 0.0037194982 0.049586173
267 -0.004563302 -0.029581646 0.024051895 0.04094648 -0.02964155 0.0072741634 0.03880841 -0.0033897485 0.011964583 -0.044329096
1502 0.00700555 0.038641244 0.0019901 -0.04459061 -0.03430163 0.014170067 0.014570363 -0.023694824 0.017924508 0.03809083
9935 -0.015823063 -0.0032849521 0.047956504 0.0481672 -0.037541654 0.040691137 0.04186552 0.0024808098 0.044654198 0.0009284236
4735 0.047475047 0.004166076 -0.0405538 -0.04398828 -0.0448622 -0.022608204 0.016400987 0.021404166 0.0038772735 0.030112624
6475 -0.03993768 0.048279233 -0.0015411793 -0.013806813 0.04167173 -0.041483983 0.019677803 0.021135282 -0.00416427 -0.040956873
9592 -0.040992092 0.045000486 0.031041909 -0.014342626 0.024331026 0.017207908 -0.027224839 -0.045076266 0.04385834 -0.011977681
4211 0.03091946 -0.00019484214 -0.0029103074 -0.040100873 -0.021198407 0.01881729 -0.046313982 -0.0037110345 0.014947227 0.012415634
3386 -0.032706816 -0.0028779362 -0.034108143 0.03649378 -0.0033274868 0.0357611 -0.010159681 -0.034569804 -0.04477634 0.036836047
792 -0.003686916 -0.010973731 0.0018187731 -0.027808955 0.02532267 0.027752267 -0.02752005 -0.026736323 0.035799008 0.02058923
7374 -0.047344502 -0.020742143 -0.048858866 -0.013702768 -0.04093235 0.040462498 -0.0074256198 0.00084318244 -0.01832206 -0.016682921
8099 0.031703383 0.023549082 0.008214555 -0.013980427 0.04206895 0.019204909 0.0017983455 0.038779408 -0.03206546 -0.017591598
2747 0.041270707 -0.023148358 0.012235294 0.008498656 -0.048932575 -0.04856709 0.0005619055 -0.0016636994 0.018807372 0.046949793
512 0.03516481 -0.024122432 6.204386e-05 0.0269112 0.008856651 -0.016914641 -0.01727077 0.04549881 0.009919445 0.034832995
9481 0.039620433 0.010065705 -0.018277664 -0.0060284897 0.049396332 0.038634468 -0.011660285 0.0411484 0.021811886 0.010629995
2716 0.012502762 0.044701163 0.0479872 0.028367465 -0.04576419 -0.0034429927 0.012107785 -0.02573796 0.006980104 -0.04104793
3977 0.03799714 -0.025313271 -0.032837544 0.046545986 -0.030909428 -0.03160171 0.018802037 -0.022255385 0.004870231 -0.025782151
1963 -0.046914224 -0.006269465 0.040648695 -0.026246069 -0.023853304 0.00361651 -0.044595085 -0.042908844 0.046311546 -0.02004661
8277 -0.021157064 0.007773905 -0.008576297 0.041496605 -0.047772832 -0.017027684 -0.03425179 0.028952174 0.037744593 0.041224986
8540 0.029910894 -0.022344649 -0.018692436 0.024218293 0.03415859 0.03396878 -0.015216307 0.021737564 0.017277 -0.047238212
8323 0.00031761592 -0.021297496 0.037687335 0.009072229 0.047693852 0.026060482 0.005621396 0.03644056 -0.008310984 -0.035239697
7777 0.04186455 0.014968704 -0.017775094 0.016274093 0.035459813 0.037149467 0.021115785 0.02099601 -0.0345998 0.04852196
7967 0.047850434 0.016466154 0.0404501 -0.016155854 0.017622063 -0.0012311558 0.0074080033 0.0023889411 0.035623193 -0.0023626646
6405 0.022867989 -0.0011503138 -0.021561133 -0.04623111 -0.032978892 -0.034001183 0.02659204 0.042118702 -0.036503017 0.013384144
6810 -0.0020634017 -0.0020487749 -0.03604709 -0.047975477 0.026474401 -0.0019622263 0.0067298785 0.005996712 -0.022179088 0.03331065
8902 -0.0016586559 -0.024526477 0.024993105 -0.01188738 -0.007645169 0.0076658726 0.01692305 0.003876573 -0.045291875 -0.02358318
7079 -0.027365485 -0.04464952 -0.01721982 -0.031348612 0.0051940195 -0.020738207 0.0009731492 -0.0146928225 0.006101487 -0.0010203798
3456 0.048127916 -0.019303372 -0.0071524763 0.028055929 0.013014996 -0.03599341 0.03210248 -0.036111437 -0.019241948 -0.020848433
8873 0.01790056 -0.00024998758 0.018326845 -0.014304582 -0.017297467 0.017093051 0.020100756 0.04137061 -0.049493376 0.026588272
5554 0.040083446 -0.033127885 0.0021792387 0.017137704 -0.044462003 -0.04395296 0.024061836 0.032341633 -0.027389482 0.041475944
7062 0.043743808 -0.035394795 0.006491704 0.044825103 0.04496394 0.032112326 -0.0055375965 0.0092656 -0.040185034 -0.02950109
5968 -0.03875708 -0.042835996 0.031564407 0.004338183 -0.020894237 -0.0023900873 0.04357995 -0.03974914 0.017325701 0.0004993759
8690 -0.0032907 -0.0059935325 -0.030548384 0.03784053 -0.013970854 0.0032128473 -0.031948816 -0.046084795 0.03243177 0.039384224
1568 0.021902194 -0.04322521 0.049909253 -0.020692699 -0.0020102586 -0.004378393 -0.04778454 -0.0367647 0.020491635 0.00074360677
4886 -0.016817793 -0.0030773238 -0.045170203 -0.024231866 0.03240469 -0.0082682595 -0.003861227 0.020415688 0.035302013 -0.025714876
5555 -0.00023925243 0.04080486 0.019092755 -0.04958659 -0.044159602 -0.023980994 -0.0055394005 -0.0032639322 0.023844216 -0.027066566
6908 0.025921308 -0.03231426 -0.002982985 -0.022654999 0.011451041 -0.043745436 -0.04376033 0.045231864 -0.02189894 -0.04622801
1707 0.0023846985 0.0027660867 -0.012859686 -0.014916232 0.0014699623 -0.02427646 0.048085812 -0.008995692 0.022189068 -0.029017694
5074 -0.021958226 -0.0012697527 -0.040320735 -0.010932356 0.0017618164 0.04653636 -0.042636376 0.010414464 0.00023906639 -0.0031372565
6037 0.030763237 -0.03369632 -0.028541014 0.020827565 -0.00012800092 0.01889208 0.03627468 -0.013293261 0.011811679 -0.014260294
3607 0.01552496 -0.028283115 0.03204617 -0.014091903 0.044265565 -0.041673914 0.0059305285 8.97594e-05 -0.02742306 -0.010735034
2537 0.043950163 -0.03146671 0.034191247 -0.045784608 -0.0046942956 0.029808989 0.045849606 0.048282925 -0.04707117 -0.047282457
2578 -0.025717018 0.03494691 -0.035270583 0.037996273 -0.00091448834 -0.03193896 0.013624815 -0.03602875 0.017142748 -0.04969277
9316 0.03962034 0.04935732 -0.022974985 -0.013429156 0.028683877 0.016681405 0.045733728 0.046997678 -0.014646923 0.047425024
4827 -0.01759708 -0.014357137 -0.02057585 -0.04135914 0.03672083 0.032100737 0.010337938 0.026529772 -0.01442483 0.02262097
1246 0.043968633 0.035828624 0.045536205 -0.015543223 0.047960963 0.017477587 -0.024914183 0.0061985916 0.03954536 -0.040176447
483 -0.035629004 -0.016275605 -0.0031456894 -0.04613865 0.02027558 -0.035718694 0.041347113 0.03694276 -0.041406263 -0.034337923
989 0.038141273 -0.008776409 -0.04875233 -0.036580123 0.019784117 -0.024176301 -0.0028526203 -0.00042378562 -0.020300776 -0.033470444
527 0.04205423 -0.014866143 0.0049472693 -0.013816431 -0.048821505 0.026333887 -0.012754121 -0.0432949 0.005850452 -0.017143024
9166 -0.020616235 -0.004955015 0.034960907 -0.020650871 -0.03417408 -0.029601047 0.028393365 -0.03539862 -0.026528306 -0.017258001
9029 -0.019107915 0.005373433 0.016901152 -0.048738454 0.020390194 -0.023448925 0.027143069 -0.017851848 -0.032326687 -0.0143237775
2809 0.011134526 0.009465655 -0.04656268 0.02277643 -0.019765822 0.046863496 0.037599508 -0.03326453 -0.046618965 0.015131982
6316 -0.0213159 0.0153021 0.0077478895 -0.019212577 -0.015623507 -0.04058626 -0.012061039 -0.03839008 -0.014009578 0.025786048
5575 0.02963235 -0.029819826 -0.004733745 -0.0067891255 -0.0222272 -0.026574397 -0.0049718763 -0.02614246 0.022679852 0.013836969
912 0.014927306 0.025345983 -0.029495627 0.034267496 0.037013803 0.0408562 -0.034314677 -0.021400169 0.017158845 0.017001152
2329 -0.011917994 -0.043345258 -0.024338251 0.029304063 -0.033342343 0.010944591 -0.04362943 -0.046078656 0.012271871 0.042020656
9814 0.006676139 0.019180268 -0.042799156 -0.023043435 0.0054849517 -0.027978657 0.017651105 0.008352553 -0.034485456 -0.005256491
2672 0.022412185 -0.0336874 0.041738894 0.04846091 0.018695017 0.02853207 -0.027102435 -0.022147542 -0.0070461435 0.049562033
1951 0.033262637 -0.03664295 -0.009903374 -0.0027024376 0.004086127 0.0098316 -0.03986252 -0.04636368 -0.02195494 0.03874052
9800 -0.040816855 -0.025643684 -0.020675646 0.028888816 -0.030810159 0.009138861 -0.041675694 0.0074432516 0.043062445 -0.02919528
8629 0.0026630838 -0.026270147 -0.03137834 -0.048735633 0.017734032 -0.02701449 -0.008452885 -0.004440318 0.047313932 -0.008373187
5638 -0.0052101007 -0.018497415 -0.033659525 -0.037244156 -0.039526675 -0.031321265 0.034114838 0.029068774 -0.022964027 0.040297836
1503 0.015540759 0.0012002635 0.012155322 -0.044108722 -0.018849185 -0.007861066 -0.04895854 -0.04656108 0.027516602 -0.03738395
3599 0.010060997 -0.010313661 0.0010470278 -0.038366612 -0.035671063 0.018747533 -0.018687353 0.04400685 0.024448622 -0.003947252
3549 -0.006250769 -0.0048097796 0.0022529922 0.034910385 -0.023324776 0.030999612 0.012487444 0.03429936 0.0066679157 -0.022101093
1523 0.046392422 -0.011057116 -0.028736623 -0.027711751 -0.044019315 -0.022480624 0.04551423 -0.045117162 0.0010731422 0.016157625
7125 -0.00090052775 0.023706209 -0.006537944 0.04451434 -0.04737554 0.029193368 0.032404277 0.03639185 -0.0124616185 -0.017068367
6378 0.037719823 0.04650693 0.046966776 0.04547429 -0.024945905 0.040459987 0.04850313 0.032575596 0.030579219 0.04525653
8004 -0.0032305447 -0.04810391 0.04116832 -0.015325198 0.010042039 -0.046344507 0.031030541 0.013057567 0.031265423 -0.038817912
2895 0.04183345 -0.00802832 0.016656643 -0.03835226 0.03171311 0.0055218013 0.0050749346 -0.03760123 0.0343376 0.035158116
5366 0.013312455 -0.0266599 -0.019002987 -0.0150159 -0.0067124143 -0.017702198 0.025574658 0.009506553 -0.019623274 -0.031282634
2910 -0.013211779 -0.0060696644 -0.03497596 0.037533373 -0.046913445 -0.022339663 0.03338376 -0.0021219512 -0.049202837 -0.006535525
9756 0.042657066 0.0025359401 -0.0314327 0.024366807 -0.02752989 -0.044292353 0.04041566 -0.04673212 0.0402045 -0.028765723
1549 -0.019114053 0.028113667 0.040615194 0.047852132 0.032536834 0.016951293 -0.009251295 -0.024056453 -0.010984768 -0.027658725
8824 -0.03199799 0.0326553 0.017914312 -0.017296733 0.029338617 -0.034985915 -0.045609165 0.048728675 0.032368522 0.02560565
7811 -0.03705812 0.010239449 0.0019049817 0.04133844 -0.045925293 -0.045983344 0.048144642 0.009327078 -0.02933511 0.00074958487
7608 -0.023526361 0.035877246 -0.02970664 -0.007331574 -0.04640333 0.039634686 0.03867467 0.03538174 -0.008763219 0.01902578
886 0.02913471 0.044845063 0.0030119147 0.023572607 -0.000107710366 -0.017854212 0.035432976 -0.027494904 -0.01038391 0.033597358
2814 0.03003283 -0.03350071 -0.02039699 -0.0032883876 0.010488108 0.03203361 0.03570747 0.02345059 0.034574028 -0.017895676
6603 -0.0196749 0.02760737 0.023812482 -0.00088722387 -0.008370019 -0.03724514 -0.049779266 0.0123327505 -0.011306284 0.017343765
4914 -0.045763664 -0.047564104 0.045007944 0.028443277 0.022715516 -0.0387118 -0.02191661 -0.013029726 0.039065953 0.031202225
4498 -0.021772524 -0.016765153 -0.024857637 0.026262915 -0.047465377 -0.008592939 -0.014285018 -0.02158075 -0.00874084 -0.04794883
7203 -0.049381416 -0.008644899 0.011260486 0.0118283285 -0.034875594 0.025144212 -0.04084225 -0.0047495067 -0.008969752 0.0046215346
6529 -0.03978636 -0.023061872 0.014151389 0.001710944 -0.01726891 -0.040008184 -0.00066396047 -0.025845956 -0.031126168 -0.010529327
4408 0.0006328435 -0.02608679 -0.0028235987 0.045027852 0.039840087 0.026686946 -0.0425588 0.02112544 0.036369868 0.00956947
7990 0.017276028 0.0415844 0.0005605768 0.038067322 0.012225345 -0.0047033085 0.0002459668 0.04142989 -0.047070056 0.018672926
9516 -0.018281164 0.0417381 0.027093386 0.04257076 -0.009600786 0.007975025 0.04724635 -0.0031164156 -0.018196445 -0.009422335
3519 -0.0003247847 0.018818269 -0.032072574 0.03495517 0.0077061383 -0.016813032 -0.027232256 0.028642787 0.04354563 -0.020373387
4471 -0.034424238 -0.043739613 -0.02927179 -0.0043925233 -0.04247622 0.02489817 0.017881524 -0.044271056 -0.015216253 0.0167467
9877 0.009999212 -0.010450434 0.029864777 -0.024338184 -0.039282445 -0.03449436 0.04352092 0.02605251 -0.025224766 0.022684954
8662 -0.04686905 0.047030453 -0.028101932 0.04730445 0.018565547 0.020344421 -0.0483852 0.007089523 -0.015659584 0.03224796
8318 -0.0033368084 0.010239772 0.04641366 0.00024218856 0.0044691167 -0.00326548 -0.041610032 -0.0081737535 -0.019168656 -0.030308982
1968 -0.0069966936 0.021513999 0.028306507 -0.037769932 -0.039641395 -0.00012467662 -0.030495843 -0.0026438548 0.0101235835 -0.049630664
9788 -0.025144441 -0.013901133 0.047447816 0.036737643 -0.04886182 0.028297653 -0.036287747 -0.034648065 -0.02820152 -0.00835835
5807 0.010365931 0.013904963 0.018844413 -0.030204209 0.020653376 0.004423584 0.022236874 -0.01286223 0.04325259 -0.045663416
8697 0.012717958 -0.023869298 -0.04944068 -0.0029908973 0.041515026 -0.0148680005 -0.004248844 0.013754815 0.0030944054 0.032239895
958 0.0019751962 0.043154478 0.042084917 -0.03134183 -0.0448034 0.045676798 -0.0024056062 0.01753515 0.0077366126 -0.030495208
3041 0.008761771 0.008693023 -0.048712756 -0.016790373 0.040354352 0.017549599 -0.0043325317 0.045214884 0.041852728 -0.02148988
9634 0.046762645 0.025842605 -0.030828606 -0.010925348 0.047435954 -0.012215113 0.02035286 -0.023283584 -0.03955351 0.014873995
939 -0.04308597 0.019425705 -0.0327244 -0.018919252 0.023020051 0.028198685 0.009946755 0.020761933 0.021855976 -0.0023840768
3542 -0.011054185 -0.0060126074 0.03370326 -0.024947038 0.010935316 -0.01361286 -0.0064772195 0.03847362 0.035590243 0.028094005
1264 0.0036429428 0.0076214657 -0.048279427 -0.025763188 0.049100354 0.029261308 -0.025727523 -0.0024115914 -0.010402198 0.03305608
6660 0.031246558 -0.0018142485 -0.030147731 -0.026291853 -0.0044954573 0.009269724 -0.017038431 -0.044540223 0.033416167 -0.015027646
1431 -0.020253437 -0.006789039 -0.044435814 0.035171375 -0.0029877524 -0.02933714 -0.016295519 -0.010418677 0.04856387 -0.02398231
4235 -0.027101276 0.003571528 0.010583429 -0.012717328 -0.049286395 -0.03644405 -0.017449556 0.02276969 0.038052786 -0.016992394
8572 0.022959609 0.033793893 0.00457165 0.03327019 -0.02821989 0.043219 -0.022178803 -0.018719412 -0.009134189 0.02267581
8863 -0.022969607 -0.03151732 -0.012579671 -0.049258873 0.012165534 -0.012649776 -0.0074115996 0.049612142 0.045338254 -0.006383972
8558 -0.0068560713 -0.0046477504 0.021232584 0.014192888 0.045401424 0.012355429 -0.025260165 0.025866095 -0.013792516 -0.0076461295
6401 -0.007989806 0.03886051 0.026107445 -0.019963117 0.010645649 -0.018144527 0.008550833 -0.009009327 0.033170566 0.029810103
8904 0.02634845 0.026632233 0.025429944 -0.014824506 0.039608818 0.033207215 -0.036499627 0.023938725 0.014509777 0.04133854
2312 -0.026364211 -0.037544936 -0.024391597 -0.036869735 0.04840589 -0.019417835 0.04032895 -0.022078268 -0.015309154 -0.038732745
1076 -0.025267687 0.014572033 -0.026353331 0.015125183 0.032411642 0.024473516 -0.041017015 0.039745767 -0.008471789 -0.012551115
3103 0.031423952 -0.029580852 -0.021712512 0.0030058203 -0.008017278 0.011692109 -0.041373298 -0.021119677 0.034747515 -0.0026291453
4442 -0.017035259 -0.034466375 -0.010200992 -0.00705375 -0.027700733 0.031801354 0.038701404 0.036553066 -0.0026085693 0.01667266
3186 0.003982664 -0.019020405 -0.003749193 -0.0145923225 -0.011872202 0.03768861 0.030028014 -0.029001469 -0.006098595 0.023080442
2233 -0.037586063 0.0008749048 -0.0064698746 -0.019283274 0.012784533 -0.019483622 -0.010376647 0.023791382 0.014345395 0.030446514
2570 -0.024781909 0.010558676 -0.008527428 -0.045046117 0.008732256 -0.047491517 0.032473166 -0.018719107 0.0017775967 -0.004608244
3267 -0.010232563 0.03567058 -0.047115464 0.013824014 0.015273927 0.024623692 -0.03765772 0.025296118 0.02407207 -0.023224268
2094 -0.0025580921 0.049897388 -0.045514576 -0.00960552 0.017431343 0.019411001 -0.020350557 -0.005720364 0.0011250664 0.030071389
7445 0.011381366 -0.005999794 -0.02617057 0.032106034 -0.028147295 -0.011639396 -0.02804763 -0.032051593 -0.02824294 -0.013128335
6032 0.0021082342 -0.02789017 0.03537278 0.011082934 0.04005683 0.0019793767 -0.02609205 -0.026094351 0.014015771 0.004144689
676 -0.031036083 0.021009244 -0.0018186661 0.039093826 -0.038338207 -0.034928318 0.0054714084 0.048187494 0.03252444 0.008569875
92 0.011454993 -0.031187551 0.022832848 0.007540266 -0.01578756 -0.0041409475 -0.008153993 0.004617008 -0.030792251 -0.03961131
2852 0.005025383 -0.042619456 0.03952546 -0.023192095 0.03867213 0.016271982 0.024571272 -0.012773794 -0.014340423 -0.024131654
5000 -0.039304096 -0.0009589117 0.049465448 -0.010948002 -0.0034787336 -0.012114161 0.022724703 0.03963161 -0.01973224 -0.01668653
8823 -0.02749516 -0.019809965 0.021162532 0.017919583 0.029913235 -0.0006753991 0.03645115 0.008996002 -0.016351044 -0.028081251
9934 0.041199923 0.030370437 0.0018159162 -0.01588544 0.018143034 0.04821834 -0.001953418 0.04044165 -0.031962316 0.019974275
4638 0.024012726 0.03498302 0.024383286 -0.00095798064 0.018657438 -0.008211464 0.00557154 0.019469902 0.023977831 0.021221243
4748 -0.0006725579 -0.04877827 0.04224121 -0.030181292 0.0051956484 0.005548029 -0.015726995 0.013077346 0.017948063 0.04841699
1711 -0.039400913 -0.046742912 0.0128027685 -0.019172158 0.049558286 -0.03213708 0.022519527 -0.03684018 -0.045551606 -0.0059752553
5995 -0.0061539253 -0.024227519 0.013618846 0.03736534 -0.038185727 0.037628476 -0.0017444855 -0.046869878 0.02030078 0.04200529
1074 -0.049530115 0.0045649153 0.044379678 -0.016943276 0.03597264 0.03985956 -0.049562156 -0.017214028 -0.009753852 0.0035897833
2267 0.037832104 0.020384245 -0.037024707 -0.040388014 -0.0056909113 -0.0301013 -0.0267989 -0.03711549 0.04990561 0.0004208872
8921 0.045869265 0.024729649 -0.029637583 -0.023222301 -0.027831264 -0.04308766 -0.0029554283 0.015738204 -0.023838421 -0.036378283
4926 -0.032763146 0.04589776 -0.021480544 -0.02022581 -0.023832208 0.00026558086 -0.0039901244 -0.018230466 -0.022954192 -0.034037158
7240 0.044148844 0.03604057 0.032525223 0.049997527 -0.024819849 -0.004829103 0.024808567 0.011676736 -0.027925353 -0.0115717845
3819 -0.00878592 0.01025524 0.028004171 -0.04985828 0.047200684 -0.024922034 0.02337257 0.036895774 0.018159583 0.035920832
6267 -0.0080764 -0.012755927 -0.021394733 0.040024802 0.033890545 -0.023753311 0.038675223 -0.0007195712 0.007613213 -0.0029556898
7672 -0.020525366 -0.031052252 -0.009307818 -0.04229823 0.028800664 0.04025023 -0.035863634 0.041599378 -0.0059463163 0.0030072946
4511 -0.018998854 0.030440757 0.0031763506 -0.03283666 -0.043923914 0.04401555 -0.014650978 0.04387313 -0.010805359 0.004030721
4292 -0.00054941635 -0.034744937 0.01570091 -0.015354579 -0.02058561 0.013890487 0.037220515 -0.03478435 0.04100502 -0.032241195
655 -0.045910344 0.018621702 -0.004242655 -0.001460326 -0.04500755 -0.004786924 0.03267055 0.00780157 -0.0398315 0.048484795
9185 -0.01187903 -0.029062627 -0.020078816 0.0355859 -0.045543365 0.041448016 -0.0038297381 -0.038462453 0.009381332 -0.03442512
8066 -0.0072704935 0.028877847 -0.042190034 0.03062166 0.035615657 -0.0007045673 -0.007545255 -0.01772039 -0.025757112 -0.0022460832
8551 -0.010088416 -0.02014801 0.019562105 -0.0460751 0.021173166 0.045348395 0.027174665 0.0008194325 0.03490006 -0.022511747
3644 0.011537136 -0.0021371713 0.019137794 0.041047074 -0.015603308 0.015694369 0.020231226 0.04337317 0.019377353 -0.030619176
9353 0.037990108 0.044020332 -0.028412113 -0.00025893535 -0.030056154 -0.02431365 -0.012050342 0.0036544462 -0.03206211 0.04933519
1160 0.018249003 0.037100494 0.017692728 0.038276084 -0.01795139 -0.018386181 -0.017749133 -0.031897146 -0.04180087 -0.023403756
2932 -0.017592765 0.007529122 0.009594853 0.018482395 -0.03530257 -0.018693328 0.019864812 -0.0043128375 0.013106761 0.037230402
3647 -0.031432644 0.024409205 0.008596511 0.04758861 -0.020651259 -0.033296134 0.007053311 0.005659504 0.044593617 0.03734422
6058 0.0060244687 -0.04750516 0.03465503 -0.008940966 -0.008725316 0.04208532 0.016515026 0.023108039 0.020295301 0.022292418
8632 -0.009392009 -0.044894487 0.01064848 -0.0109660365 0.023256278 0.025585644 0.011630938 -0.009369838 0.008945053 -0.031237617
7329 -0.015152966 -0.010927448 0.0127046965 -0.012675513 -0.0037214116 -0.040930428 0.039951306 0.04314297 -0.03929157 -0.042582054
9569 -0.026888445 0.019766644 0.022043953 -0.026868222 0.018217903 -0.040708546 -0.005191692 -0.04598395 -0.0117540145 0.018610165
9303 0.04160677 0.04193529 -0.008030732 -0.04291171 -0.020369016 0.03573306 0.02006715 0.044653036 -0.019548452 -0.020458149
3682 -0.048289135 -0.025860839 0.04040963 0.017865598 0.013295343 0.0026842738 -0.045870706 0.044908028 -0.042996418 -0.009257016
2881 0.0023337107 0.02055736 0.01860168 -0.019600397 0.026838636 0.023846649 0.008568475 -0.045799136 0.0012157303 -0.011051047
9562 -0.00024380854 -0.036879122 -0.043768786 0.014127218 0.017263712 0.0040726885 -0.037776377 -0.04625773 -0.028173624 -0.040282845
9667 0.007118077 -0.025055975 -0.028819978 -0.017750736 0.034204666 0.011433369 0.01734071 -0.0013726793 0.012957521 -0.003784298
6664 0.036160655 0.009531513 0.0071369545 -0.037995327 0.011198679 0.03497072 -0.013790659 -0.010874991 0.036441725 -0.012576642
3416 0.023147976 -0.01192501 -0.024411127 0.013735275 0.01027161 -0.020896196 -0.01596684 -0.033106983 0.034338724 -0.0002485243
597 -0.033974834 0.033934046 -0.010318996 0.049249046 -0.04003172 0.003837241 -0.028867045 -0.005866225 -0.0027317372 -0.034328952
4694 -0.01319684 -0.03512395 -0.0181839 0.037353814 -0.018670136 0.019964723 0.0018514991 0.016668335 -0.046477184 0.043215394
7077 0.010137399 -0.0018891231 -0.039771073 0.028150398 0.008814939 -0.026518356 -0.03478071 -0.011607753 0.036519613 -0.025412299
9456 -0.047808774 0.0041940813 -0.029378852 -0.017785443 0.023426985 0.029294472 -0.028263014 -0.014261136 0.01214609 0.04609909
287 -0.016919766 0.049896684 -0.0016891791 -0.035257023 -0.039789807 -0.031531353 -0.04226519 -0.010807582 0.018630868 0.047122385
7209 0.018007034 -0.024448493 -0.04060308 -0.034560014 -0.025167793 -0.03156555 -0.026194349 0.03074977 0.005770798 -0.0030460432
1980 0.03139902 0.019539984 -0.00031512103 -0.041853864 -0.01457726 0.023089837 0.015982658 -0.009024985 0.030377476 -0.018958231
7422 -0.015551515 0.015859827 -0.012812454 0.0091643995 0.015407619 -0.0109451 0.044545144 0.001994691 -0.0024686719 0.009238059
323 0.037830003 0.01870979 0.02883033 1.7486069e-05 -0.022414804 0.0038726013 0.031888783 -0.012050666 0.019332575 -0.034447424
7221 0.04458549 -0.04400778 0.034676928 0.04825893 -0.022790331 -0.047920533 0.04790112 0.019415684 -0.01558538 -0.049584065
5164 0.03280244 -0.033114225 -0.039410636 -0.0021075543 -0.0007549976 0.0124964835 -0.03350807 -0.020842317 -0.010737604 0.022267357
4538 -0.023721077 -0.04106502 0.046376355 0.015075161 -0.009891758 0.017097702 0.046082523 -0.005201629 0.04836161 0.026600022
3121 -0.010279353 -0.020466253 0.0028475681 -0.029566994 0.04165581 0.0027104977 -0.023370616 0.04221643 -0.046606198 0.034762546
3357 -0.009784675 0.021820791 0.031208819 -0.014322089 0.027568612 0.046413 -0.014390959 -0.0021190145 -0.025149938 -0.0060418765
4261 0.021726446 0.013871533 0.03149656 0.034057178 -0.03170107 0.0033271255 0.034093104 -0.020584006 0.007309016 0.007722812
6836 0.042687193 0.019218633 0.014517484 -0.014862974 -0.011532271 0.0063701407 0.017876843 -0.025980288 -0.011845662 -0.030981794
8525 0.027145714 -0.012119094 -0.048613634 -0.004166441 -0.017433155 0.033802602 -0.033822246 0.041229527 0.002200112 -0.00522739
6237 0.0014475542 0.04204384 0.018465966 -0.018506149 -0.04490231 0.044156 0.012362766 0.035908 0.020799631 0.03400594
9445 -0.02293285 0.036494095 -0.037639275 -0.011978587 0.0043581226 0.036600396 0.028504724 -0.02574775 0.00615544 -0.039266367
7231 -0.0063038566 -0.038183466 0.03321639 0.018924296 0.0040533827 0.020904252 -0.010655855 -0.033510458 0.013437461 0.038325418
4648 0.015684463 0.03471323 0.030439874 -0.034528017 -0.013818803 0.027556796 0.032938235 -5.67957e-05 -0.02804686 -0.04611614
6398 -0.0382359 0.022851914 -0.01093423 0.04156333 -0.012029567 -0.012916696 0.038598068 -0.003032494 -0.0040764506 -0.009487565
2954 0.01182493 -0.0138947815 -0.042076778 -0.03138195 0.029607713 0.02686355 0.00936434 0.016908241 0.030407535 0.017503453
9587 0.019982379 0.00095477904 -0.0065259016 -0.002147803 0.04742359 -0.031135451 0.020210367 0.028502524 0.029866975 -0.039111264
9376 -0.024555366 -0.02785736 0.0033269345 0.0086411275 0.0025072575 0.024185091 -0.026606567 -0.037250936 0.04710435 0.03177149
4685 0.04175054 -0.031307086 0.0247202 -0.026060393 0.041977357 -0.023232963 -0.014798164 0.025426146 -0.019176835 0.011569323
1367 -0.008259202 -0.012914542 0.012457089 0.04803577 -0.025277639 0.045916922 -0.022823814 0.03733604 -0.049797 -0.01510689
5990 -0.048292764 0.023684522 0.032523327 -0.015781838 -0.017455881 0.030892458 0.046084736 0.022082794 0.030609958 -0.029721836
1573 0.031036517 0.037432574 0.045341022 -0.012347141 -0.009104938 -0.007171949 -0.017514765 -0.03160215 -0.014233329 0.008595042
7248 -0.031224938 0.041319087 -0.042685986 0.03731508 0.024797238 -0.03721311 0.019168148 0.006384199 -0.03865754 -0.021440469
9107 0.029616764 0.028227106 -0.023518007 0.022467997 0.026185384 0.02367083 0.008233053 0.03281488 -0.0035776899 -0.008759382
7495 0.030783016 0.039199464 0.019159261 0.013494614 -0.0043526073 -0.016109869 -0.014107292 -0.036542945 0.011881814 0.009835728
8951 0.03848558 0.034826744 -0.0040082242 0.029984357 -0.0029245112 0.04550147 -0.047795437 -0.02643607 -0.043174796 0.033435613
